time(ms),fx,fy,fz,tx,ty,tz
0.0019073486328125,-0.39666178173415284,-0.010487088088878598,-0.4630804033480079,2.964563311926138,0.995951435150326,-1.4615081015054463
10.065793991088867,-0.38493777986886674,-0.011290131466035,-0.3801362864113151,2.742755155923488,0.6819189839769579,-1.4673363593594877
20.07126808166504,-0.39237771132809285,-0.011555245829265941,-0.44649437807568354,2.9016937506158507,0.9304558382096063,-1.4507807475652175
30.060529708862305,-0.388156531292565,-0.009906346352042615,-0.4097463240373076,2.7847812521070012,0.8258854060928679,-1.4699872778920413
40.06004333496094,-0.39462687369315647,-0.012873442502047722,-0.4559446160484793,2.889037101062889,0.9487749283829506,-1.4692394902520485
50.06003379821777,-0.3902955604759456,-0.009899771563355567,-0.422811695344633,2.879224752617011,0.7862817959596405,-1.4705615792747664
60.06336212158203,-0.38821788348143565,-0.013633326127504206,-0.4144612822708605,2.749950031908792,0.8114088093860976,-1.4564804484478786
70.06692886352539,-0.38799925221768133,-0.01259975558980114,-0.42520047270655736,2.8971160938538953,0.8904278243723939,-1.467696225087787
80.3987979888916,-0.39146379381589214,-0.009449775267743135,-0.43105877825155037,2.811836601345846,0.8363328828775786,-1.461821737371494
90.0721549987793,-0.39346901995303923,-0.01339281641808554,-0.4429228797034484,2.8897265753607075,0.9596837908856165,-1.4781659804955047
100.06427764892578,-0.3903210811607067,-0.008529751924678934,-0.4168792725788106,2.853166404584784,0.7365920973197361,-1.4515745149566228
110.40830612182617,-0.39038652266179924,-0.013666425170694853,-0.41918429407343755,2.7508193046361846,0.8327110840891825,-1.4569748425438453
120.0721263885498,-0.38685547971781453,-0.006813416312419956,-0.40983619198823945,2.9286067523969153,0.8289075297538958,-1.4663470584403338
130.0666332244873,-0.38937062558127544,-0.01210773129403642,-0.4369526276731878,2.7383016948251533,0.8737407793320922,-1.4439414729184035
140.06519317626953,-0.39015477308452573,-0.011607387686480813,-0.4417925631667338,2.9464726761197597,0.96575592556625,-1.4917435350322392
150.07543563842773,-0.38723768034405986,-0.013910308250058052,-0.4038048378799475,2.738282376889206,0.6558928064514311,-1.4497243356551188
160.07161140441895,-0.3881511757942193,-0.01033986972250424,-0.4417683399319514,2.8684407673300027,0.8966362475757261,-1.4720113092379152
170.06850242614746,-0.3880540389970214,-0.01202137114762519,-0.3908142778510304,2.8198414925479502,0.7473257196628738,-1.4647523204653525
180.08041381835938,-0.3914502440611752,-0.010991155221553731,-0.44764808622864,2.8329375680871807,0.9212832607850159,-1.4679179389676351
190.0789737701416,-0.39133478039223046,-0.010669703391779342,-0.4251551244850139,2.8494321590894423,0.8768330121877504,-1.46717669797886
200.0715732574463,-0.3924786029142651,-0.012377519603575995,-0.420375715814569,2.785206327983867,0.8303451137094131,-1.4393368948509873
210.08038520812988,-0.39023626857511334,-0.01129592153196392,-0.42516716419553885,2.858801720684649,0.8700417150526776,-1.4626662522521852
220.07155418395996,-0.38706035488540946,-0.010516382320927022,-0.41095022943570364,2.8075322094340955,0.8038968741426338,-1.4654039092237945
230.3640842437744,-0.3913707119406758,-0.013569216466630698,-0.4547694984076821,2.865175095112859,0.9554918863238241,-1.4510207633057284
240.07606506347656,-0.39137910003294746,-0.006822373406850991,-0.4204244467852135,2.851610577603621,0.8120371565948014,-1.465937251830205
250.42986869812012,-0.3925839402206053,-0.012477076223143773,-0.42984314265479295,2.7733480572409093,0.8241123734797339,-1.4527345634193545
260.07890701293945,-0.3870250923834592,-0.010440367384104695,-0.4097878268046974,2.8469387322259854,0.7729353094481424,-1.4653066379920203
270.4324722290039,-0.3892574973222923,-0.011959118559733192,-0.42751225032022994,2.8026746442527672,0.8567903988419037,-1.4575698405985194
280.08031845092773,-0.39029342202826994,-0.007689732786323325,-0.4334644099576555,2.8627937460428607,0.8673311826015861,-1.4624210154479045
290.07887840270996,-0.3924744729590319,-0.009121798671449521,-0.448851685241258,2.87739867149487,0.9237448766761039,-1.4682254096014948
300.08578300476074,-0.39349645398572064,-0.01297541894398531,-0.42395794394180847,2.8544747062474882,0.8251258507378879,-1.4489792523385756
310.08267402648926,-0.3871827841412276,-0.0153989523334105,-0.41447182131634985,2.758485148710973,0.7477621693301548,-1.455824817272997
320.0860023498535,-0.39026530956993705,-0.013715409378564096,-0.4180304202220501,2.80970553506631,0.8811929818543696,-1.471518803478785
330.0957679748535,-0.39341650918233645,-0.010786755264553369,-0.43463803943895907,2.8905755703518072,0.9283477258523437,-1.455004569396485
340.069055557251,-0.3903487590514564,-0.012821191221340665,-0.4464770203834389,2.847779273470718,0.9066834094566579,-1.467935571781803
350.07452964782715,-0.3913617923628706,-0.014106379516110993,-0.41566263653869606,2.8193499684738645,0.7809865930845448,-1.4390128481212554
360.07142066955566,-0.3924488053341527,-0.011146742921886848,-0.42277122741084056,2.832522127730398,0.8225625522850982,-1.4485015468883586
370.07737159729004,-0.3891812510329437,-0.008071342525710854,-0.4145104384299316,2.8429448122781666,0.8285720967282068,-1.470456260726739
380.0768852233887,-0.38813729151625487,-0.008837844709251324,-0.42042253031090765,2.8135977443149582,0.8608496039715409,-1.4662167725777773
390.0637626647949,-0.3945956629868022,-0.011633580544122384,-0.4559639371108122,2.9228109745617377,0.948478446994091,-1.4783598476597868
400.05993843078613,-0.3882021765207301,-0.009891289679519102,-0.41924185708309336,2.8193737071188956,0.7619723823611848,-1.456113592121622
410.0604057312012,-0.3925298287405312,-0.01607162543560228,-0.4239258578475168,2.789508390738426,0.8078826310979366,-1.4529290245968798
420.06587982177734,-0.38809503216357627,-0.007401354988655685,-0.4086006413159059,2.852168468588905,0.8175812885354424,-1.4881107751363127
430.4192066192627,-0.39455007715996143,-0.011175546311413246,-0.41919160356271495,2.812293075512195,0.8924614662272665,-1.4493461805716987
440.05727767944336,-0.39137542027722483,-0.01090691789089071,-0.4417500724615289,2.878056353578634,0.9163541701564298,-1.4815928022527696
450.06656646728516,-0.38712674993407675,-0.01424642595416956,-0.41685944191564267,2.792532312071111,0.7856253769356152,-1.4654747937620265
460.07704734802246,-0.38929112159824547,-0.015662203370888913,-0.43463386884071437,2.8404626904246446,0.8229277860172852,-1.4713334557149653
470.06893157958984,-0.3891814167313747,-0.011742012972098414,-0.4085602703000637,2.799754565814158,0.8472179692185872,-1.4706208023951177
480.06319999694824,-0.3891999030487816,-0.012019495316330746,-0.4310929558977354,2.855735877648918,0.8793589722186239,-1.4717921902580244
490.0708198547363,-0.3945835263583271,-0.010298776511613698,-0.45123260912282964,2.9297092722402316,0.9175602171288872,-1.473350724689023
500.08249282836914,-0.38939534903773637,-0.014028860787867584,-0.40375661651013794,2.6790156340810003,0.7494382152125945,-1.4506054917737619
510.07866859436035,-0.391197410140152,-0.014558864414574043,-0.44654893037611176,2.9948523348266276,0.8884231172152381,-1.4556958569978886
520.0657844543457,-0.38401696555027337,-0.010830174506248997,-0.3848196900361098,2.628576318865591,0.7076087968139195,-1.457704096970649
530.0774574279785,-0.39439240728689146,-0.009507932290642222,-0.4737982780874288,3.045684524148348,1.0626304659172485,-1.471877953264807
540.067195892334,-0.38502664425005606,-0.012752610829215345,-0.3967023340803535,2.717982455764699,0.7105052991795433,-1.4588764258755884
550.4238605499268,-0.3968972392046184,-0.01771575717495217,-0.45707537965831907,2.826627493586002,0.9133213386250961,-1.4599368114216456
560.0752830505371,-0.3880399014818322,-0.010671863724153494,-0.3872686565715023,2.8270608262469485,0.7012621154650296,-1.4461147078854384
570.4293251037598,-0.38932340152843753,-0.015654809469203255,-0.42986094742016284,2.773972290126307,0.8382938268906344,-1.457479212935913
580.0671577453613,-0.39334232318102624,-0.009514882245588163,-0.42873126553970287,2.9168408163230417,0.9464244242322041,-1.4642242770823486
590.0802612304688,-0.39258614744876175,-0.01136376409711338,-0.43339351604026705,2.768036468979456,0.8701997663447774,-1.462186627201277
600.0754833221436,-0.3945055730625005,-0.01386034548353022,-0.44294393590972864,2.939050846432525,0.8972432103076731,-1.4599552977390524
610.0800037384033,-0.3861150797267364,-0.013407491671579215,-0.39905400437288807,2.7015062697938212,0.7326733669429697,-1.454711036189143
620.0792789459229,-0.3913912085239532,-0.012263359637380964,-0.45717186929372033,2.925646796911371,0.9021827055471723,-1.4731506141329158
630.0749778747559,-0.3912888319046728,-0.011652488923570474,-0.40618520526490176,2.8128987126566942,0.844700534840947,-1.4573615951873653
640.0787830352783,-0.3914967990675181,-0.014717625396180331,-0.4488144968858454,2.8104768393779644,0.9292152478038616,-1.4816559145966715
650.0754356384277,-0.39016021924805067,-0.012393701774876186,-0.4228398078029659,2.9366370079645066,0.8194753810475496,-1.4672120761570735
660.2268218994141,-0.38504853520126237,-0.011766655142536565,-0.41567328500767764,2.754628636531858,0.7425186268489083,-1.455241005425609
670.4316139221191,-0.389145291347029,-0.014481486373677823,-0.42872365591741834,2.8601346957816456,0.8978142883869571,-1.4677880782935055
680.4249286651611,-0.3902890357094264,-0.008884465369689518,-0.4299051138679908,2.8547239635835098,0.8670087084437563,-1.4669047993591142
690.0808811187744,-0.39356313353546757,-0.010845074859497983,-0.4417224352137906,2.8520500504856714,0.9070346963831706,-1.467957715970234
700.080394744873,-0.3913035790650327,-0.01303527359420588,-0.4180413344337983,2.8400157611131984,0.8646147193972187,-1.462598672303417
710.0813388824463,-0.38824266946560637,-0.013668698052946638,-0.42752075096237935,2.80480760512191,0.7590040450361399,-1.44296838856079
720.0815677642822,-0.3870312920058874,-0.010576462070902928,-0.4061899573708477,2.7671797205523396,0.8645148032433195,-1.4658006444161862
730.0868034362793,-0.3923706175594143,-0.010223505654538176,-0.44295730433408714,2.9284233711295693,0.8957427078441541,-1.459349338576848
740.0772571563721,-0.39041686110660156,-0.011420095310885935,-0.43578776457680035,2.7879616771709683,0.8608018359276276,-1.462110327763375
750.0870227813721,-0.3924090283315538,-0.01135735188047185,-0.43226875509056956,2.8796628467630603,0.8952602440352201,-1.4768555779017516
760.0815296173096,-0.3871621406178321,-0.01272332284993791,-0.40382722905283225,2.778571140655504,0.6896168891349541,-1.4593399906842308
770.0867652893066,-0.38701944925764836,-0.016894727702067413,-0.4168467800544051,2.7773253510706883,0.8993403459254775,-1.4625806955868452
780.0729274749756,-0.3890595689832579,-0.008302654409015684,-0.43352917303309657,2.970824893061969,0.8707451486617129,-1.4722965106279244
790.0688648223877,-0.3915859760872565,-0.013236290802105236,-0.4321888853204371,2.7234626312373558,0.8678573001311276,-1.475329679808891
800.0738620758057,-0.39338494519442174,-0.01440412396470893,-0.4334659450129315,2.920646662298893,0.8973168335595949,-1.4551825764071724
810.0686073303223,-0.3893450267368771,-0.012817627141881175,-0.41209363614846806,2.760298983781147,0.7228213040222031,-1.446430357143742
820.0619220733643,-0.3880645280203429,-0.011369510393645409,-0.4216195545348386,2.8447116077522465,0.9022155138365123,-1.4762249234205556
830.4181098937988,-0.3913217808813599,-0.009454139701888223,-0.4299134769491786,2.884056431326476,0.86178724137046,-1.4627250345521825
840.0778770446777,-0.39580350450453117,-0.012167304569562852,-0.44641036271839035,2.792638756117915,0.9518320019073798,-1.4728673729866095
850.0676155090332,-0.39343396379253137,-0.009303516701714393,-0.4227997306673598,2.896397950601126,0.8512817169863424,-1.4627426642399648
860.0666522979736,-0.3894149733594619,-0.014251265598909244,-0.4227325571487054,2.7279049217603317,0.7698999486709468,-1.451520297179442
870.0318336486816,-0.3858720470242268,-0.008796204380899912,-0.41454976523301995,2.878272905796037,0.8538376528013012,-1.4798760852214807
880.4171085357666,-0.3891993621840917,-0.015496601857828866,-0.4120939737981011,2.771277705367604,0.8590507818044937,-1.4574920530011237
890.0771141052246,-0.3924111386417601,-0.010272774363487058,-0.44294154109844275,2.9019166775332694,0.9189412572764186,-1.472884958904995
900.0706672668457,-0.3924557021405453,-0.014704704044947,-0.4144637208515432,2.8088421180589416,0.791423530823766,-1.4481464426451616
910.0747108459473,-0.3881875481630188,-0.011392698794830378,-0.43583254692256995,2.8406351793649405,0.8240662311562756,-1.4484640865374083
920.072078704834,-0.38707937894112077,-0.011614694049372733,-0.4026464432751403,2.7856472108657737,0.7729007910259389,-1.46931377942408
930.3526878356934,-0.3924218527648369,-0.010311266421649293,-0.4405444600566548,2.848920432312315,0.9495585975492209,-1.4593701946944568
940.0749206542969,-0.39033363985122305,-0.008895751621311157,-0.43583497925048176,2.868843023719171,0.8371813338776027,-1.4667103788246003
950.0699043273926,-0.39025636185466245,-0.011146977400798662,-0.4121097776767569,2.8042001953168385,0.8541151914204724,-1.4618422370811568
960.0811004638672,-0.3870635250402971,-0.011790894009246402,-0.42283240139573824,2.8808745149766297,0.7663690745517784,-1.4702706784840076
970.4296588897705,-0.3871396806644665,-0.014269811317640439,-0.4109042340523636,2.7322835371900176,0.8274199767790795,-1.4654491542746166
980.0622463226318,-0.3923565269400075,-0.010038517425049964,-0.428736133321912,2.9130678630489384,0.8717111486298041,-1.4721737593544006
990.0827407836914,-0.39143757594716666,-0.014231663161882176,-0.4168092759340579,2.7534367520856744,0.8351467072113004,-1.4526457396811765
1000.0624656677246,-0.39130976305553344,-0.011003529455326138,-0.4536289679695692,2.93933324970752,0.9128770448566188,-1.4553034831132565
1010.0760459899902,-0.3914557371204825,-0.01256394597038998,-0.394298343726631,2.731533132765369,0.7116405554053333,-1.44596345022901
1020.0796127319336,-0.3913404610346672,-0.012181379557042247,-0.4381767263954687,2.8436575750215063,0.9617293255108961,-1.4730063439480592
1030.0660133361816,-0.3870445291220553,-0.009282648078563601,-0.41095620083199097,2.815072629175766,0.8038232633962539,-1.4608636565378508
1040.0776863098145,-0.39345812137321845,-0.009805448513099344,-0.45360179967965447,2.914048657073172,0.9605320636816678,-1.4512641055204019
1050.0750541687012,-0.38710495902720615,-0.01052766857254869,-0.4168800948181946,2.8216512695697573,0.7740694995764801,-1.4652094886892806
1060.0731372833252,-0.38926900554728383,-0.01539074244511177,-0.41328311953059527,2.7781919820023413,0.7870956034820416,-1.4566286484992972
1070.4286098480225,-0.391330719217478,-0.010924366248314646,-0.44294261970143706,2.891502712474634,0.9237751650987385,-1.4683645400086047
1080.064296722412,-0.3902622675968545,-0.013538027644974856,-0.4037897405644125,2.7550562135171166,0.85743615376502,-1.4571270474950775
1090.0647640228271,-0.39566459294440576,-0.012254002365607107,-0.45595037797693877,2.91257638899702,0.96650738983558,-1.474160136513424
1100.0516414642334,-0.3913573278843898,-0.007996274883692284,-0.4180642070700487,2.8700952849219528,0.7963464374618513,-1.4704531562259469
1110.0749969482422,-0.38939032493625275,-0.016600250326307322,-0.41206679925541534,2.7242963538353324,0.7688070549685564,-1.4739869628947053
1120.0816631317139,-0.3912262354143768,-0.007100137125777507,-0.43111862352261454,2.9188252801341448,0.9260572576821762,-1.4681077949793326
1130.058765411377,-0.3925082910708854,-0.014896598459984327,-0.41798243020476694,2.749812624140088,0.8722891391474084,-1.4622138830299851
1140.0632858276367,-0.3902459634965202,-0.009259231451237804,-0.4548228689343949,2.943774680474486,0.9483697144331078,-1.4824665300794866
1150.0823497772217,-0.3903282218251676,-0.010836990026618908,-0.3978800778849629,2.769364979597972,0.7506401697464443,-1.4600254256919958
1160.078763961792,-0.3882774505041911,-0.014997586964106833,-0.4298748567092112,2.7842546468613234,0.7975275046142374,-1.461383740143395
1170.0687408447266,-0.38913749101522954,-0.013145203560831974,-0.42399848690885267,2.8800933531715236,0.8668441980392326,-1.4763345219903197
1180.0732612609863,-0.38615970262684607,-0.011099659556396,-0.40377310194083077,2.6643763496524473,0.7869113343212162,-1.4594249345780146
1190.0804042816162,-0.4009291822527761,-0.013197095307207562,-0.48678118785104996,3.0520650173563206,1.0731110386187643,-1.4730338717723055
1200.0768184661865,-0.3840525219324598,-0.012977741848404908,-0.36583730904343137,2.571424900985975,0.6302461815036389,-1.451733835561232
1210.0787162780762,-0.39668184687623254,-0.011748078159950458,-0.47020300355353645,2.997648670927513,0.9735668057903404,-1.4661812380802894
1220.0775146484375,-0.3817144764278939,-0.005682449487523282,-0.36592335342490806,2.68848242626497,0.6728698237460007,-1.4658388801107383
1230.4022312164307,-0.3957458133130702,-0.014763642664218793,-0.45708887001171167,2.832016078469321,0.9749825175529643,-1.4559315958430485
1240.0767803192139,-0.38810853502251086,-0.005073498374404185,-0.42640832047705735,2.9226362690141285,0.7959930714889872,-1.4794376034036307
1250.4253387451172,-0.38844611900141757,-0.018244103817348516,-0.3954169738343812,2.58555388739557,0.7126531072533819,-1.45856020448874
1260.0810527801514,-0.39433943381113606,-0.010162134707354581,-0.4406274218220377,3.0270082381799135,0.9263389262565807,-1.4606662127885672
1270.4243659973145,-0.38515324097773335,-0.011238211582189992,-0.3693756427183805,2.5567437511293156,0.6831248715037552,-1.465696345069829
1280.078649520874,-0.3964275498067997,-0.01198442665028087,-0.4761807526562039,3.103644991191648,1.1017040161488303,-1.4687884091006709
1290.0810241699219,-0.3894436610727251,-0.00892371088675502,-0.391902306897597,2.6479959592593927,0.7071461386570695,-1.458143432291738
1300.0597953796387,-0.3955717361689447,-0.014745590914395174,-0.4583440700168547,2.9637948151086544,0.9811027204105182,-1.4705497709167679
1310.0621700286865,-0.3860490879817975,-0.008331514073480869,-0.39674383059497226,2.7970824316296636,0.6708651040833031,-1.4631514860386639
1320.0697898864746,-0.3860989194401347,-0.014900890987263144,-0.4085185111690637,2.6885918904001573,0.8286277901593391,-1.4605792836399967
1330.4417133331299,-0.39424379142620275,-0.010722136002844884,-0.4726518075168835,3.1170871013297665,1.0765850906816379,-1.4637759096335767
1340.0683403015137,-0.38624575013470824,-0.01094592580265891,-0.3966421605388128,2.6173312229825503,0.7298742514853831,-1.4582063851899798
1350.0685691833496,-0.3964037861506844,-0.014241830167498165,-0.4678977194425283,3.1205097931317978,1.0359577893888583,-1.4637128848284686
1360.076904296875,-0.3852445689506894,-0.011085390733016188,-0.3729389405814734,2.5707977980786967,0.5695438993960269,-1.450931414334788
1370.0706958770752,-0.39439810668764114,-0.013026998051811844,-0.4607421608811561,3.0015310945895752,1.0350094097293931,-1.4713391895059555
1380.065679550171,-0.38508964404408036,-0.008936272703656902,-0.3883987980306294,2.68651438535685,0.6799661029120825,-1.4712112015367347
1390.0792598724365,-0.396732444299015,-0.0157197226111479,-0.47963502720446305,2.9302469042475354,1.0700623313019084,-1.4673643373832443
1400.0639915466309,-0.3870442821376015,-0.012513101563153769,-0.38369776471805234,2.7886158545765967,0.6948996740068805,-1.4726739622746092
1410.4118347167969,-0.3895150520854066,-0.016884795175363253,-0.4333535389489967,2.661897491745378,0.7944185455962036,-1.4337441726270488
1420.0694561004639,-0.3900055475786663,-0.009714023622193072,-0.39677803950501217,2.921297313141688,0.8547803393127879,-1.4714498760578703
1430.311679840088,-0.3894111185261518,-0.013188891671679815,-0.43339541375625995,2.7304879602111103,0.8050870171920996,-1.434089181771496
1440.075159072876,-0.395536107879892,-0.010878348980276172,-0.4382040822685128,2.949992870506091,0.9984893473529307,-1.5103944941518133
1450.0775337219238,-0.3883355356202239,-0.012275314935497609,-0.41801855871549815,2.7516482376115903,0.7094985811668202,-1.4506158150986523
1460.0720405578613,-0.39350376347499805,-0.01446637029982996,-0.4369833162731651,2.8553105547875988,0.8985679692635999,-1.4547138280513863
1470.0632095336914,-0.38698807285286313,-0.009098926035199097,-0.39911944274759514,2.826544875723023,0.7720154643090513,-1.4603868921296663
1480.0748825073242,-0.3903459828211406,-0.01160976686583928,-0.44527777642580946,2.8157048437233216,0.922029904167919,-1.4498076319437492
1490.0827407836914,-0.39444898861150324,-0.01257949348543555,-0.43346568552293574,2.9318301089864414,0.9267200389006751,-1.4690035200543625
1500.0739097595215,-0.3915060031464029,-0.009194249528812358,-0.4156307036372935,2.750511859013409,0.7708443359361404,-1.4468174661952078
1510.0784301757812,-0.3944691037757508,-0.012647229753478354,-0.4441414228387122,2.9599248907357842,0.90470974418104,-1.4556373060504177
1520.0705528259277,-0.3839550443592434,-0.011990235474522699,-0.3812857364272331,2.666636251151672,0.6953190973787791,-1.4624079409037822
1530.3823947906494,-0.3933946213575157,-0.01017102302130482,-0.477338650165718,3.0095015048861025,1.045465099528788,-1.4669087323520615
1540.079116821289,-0.3882452956294186,-0.010870064058725629,-0.3955092709868393,2.742245111141755,0.745340524277566,-1.486456426369179
1550.0781536102295,-0.3945538475808633,-0.014270399078112688,-0.47018961011809407,2.9496572999194406,0.972076908026406,-1.4479249726233818
1560.0793361663818,-0.3870251017626157,-0.011349551548672402,-0.3908186078949351,2.8105008281338346,0.695328073231523,-1.4549011673227636
1570.4257488250732,-0.3883135758885368,-0.014954361558311622,-0.4215475788880703,2.7171221495108937,0.8126166102608152,-1.4609235518310826
1580.082893371582,-0.388984244977629,-0.009593085652254045,-0.4311545331863614,2.962932833112226,0.923489438475967,-1.464037356746627
1590.0840759277344,-0.38826734602628493,-0.007780594927841239,-0.44175257044353605,2.8309725441410594,0.828960928418078,-1.4616250783449685
1600.426435470581,-0.3892434661042098,-0.014375329954339048,-0.42157182400755117,2.773635250138476,0.8639084657884707,-1.4530990593245656
1610.0854873657227,-0.3860431822396055,-0.00863671182508879,-0.41689997550353036,2.8394740460464436,0.7332295665537032,-1.4645737632108184
1620.0802326202393,-0.3914105452182135,-0.015621332133368245,-0.4274879207883408,2.793518592901881,0.8699161062628152,-1.4581658265910082
1630.4149627685547,-0.39115835845898694,-0.009569628381916884,-0.432326959009251,2.9697704413955734,0.9330605831548467,-1.4778307350529452
1640.0816440582275,-0.3915360258262706,-0.014378690818741598,-0.42745109822003063,2.72206821953908,0.8481311770412815,-1.4527001294095592
1650.0828266143799,-0.3933134103680077,-0.01088877234950235,-0.44534560961180253,2.9778776185517795,0.9396739545652552,-1.44255382671833
1660.0794792175293,-0.3904000817956727,-0.013223250648223241,-0.3954864858893826,2.7277773964961636,0.7128505728873638,-1.45491570188891
1670.0689792633057,-0.3892260708953392,-0.010938087954233575,-0.44176471019839664,2.877876974084716,0.9031591351372606,-1.481272094502742
1680.0687313079834,-0.39018705301471784,-0.01122195125125255,-0.41329820434058817,2.810988350434493,0.8957277605951227,-1.4490042290322613
1690.0742053985596,-0.3935808632675857,-0.012122247101870015,-0.44765316973144803,2.871754013755159,0.8998473018383459,-1.472703775486649
1700.0715732574463,-0.39035438967172525,-0.012451830660305878,-0.42038793998183793,2.7847537086508276,0.8401257574800288,-1.4662124175227886
1710.0763320922852,-0.39132080857547225,-0.012990866414695126,-0.4156593350756178,2.8134612463244317,0.8494152804802865,-1.4487036270673248
1720.0751304626465,-0.38932381421132234,-0.008195303710419497,-0.42752161071838923,2.8119928831037577,0.8115041172477834,-1.4701547177197698
1730.0703525543213,-0.3912363117548135,-0.008326264872241926,-0.4287303026129717,2.884682574433409,0.9336688089465321,-1.459048186368065
1740.0715351104736,-0.3924851558182538,-0.012549955395318863,-0.4286844666752917,2.825511120728576,0.8841676157197929,-1.4808241178521564
1750.0720024108887,-0.3925275245944246,-0.010190916212182531,-0.4405287405904073,2.8162676306282846,0.8702861452495017,-1.4446239191016392
1760.0715160369873,-0.3891433873782651,-0.011741800377885041,-0.41095084220725986,2.83964268015343,0.8393898688632139,-1.470875183876959
1770.4293727874756,-0.385940327283345,-0.007488005888917539,-0.4169158575418234,2.8666546789310594,0.789742889154655,-1.4609290355112334
1780.0848484039307,-0.39130334458612087,-0.011057694083953554,-0.4464914736635626,2.8853261002436703,0.9811002036701981,-1.4691064469174893
1790.083408355713,-0.3891767083948256,-0.00920083682304139,-0.4097681993565864,2.834875004807732,0.7976819386783244,-1.4610771198863888
1800.079345703125,-0.39156964072306727,-0.019490796927571174,-0.4416566060408972,2.720547877033237,0.8721670194037537,-1.444691239560412
1810.0788593292236,-0.3922811060164284,-0.008850456548321062,-0.43350851700415916,2.973990552207263,0.8790607369275039,-1.4682273667188122
1820.0321197509766,-0.38722616899268286,-0.01515466282393355,-0.39191995221730686,2.6694344818421647,0.7275365311249082,-1.4679889360557448
1830.3208351135254,-0.3934719837664845,-0.011279814393915531,-0.46307520416893677,2.9206923356645276,1.0450995812955213,-1.4840433726239188
1840.0797843933105,-0.3902628272198574,-0.012257331966154758,-0.40857172225011634,2.835632503001059,0.8079240775903874,-1.4795013066343905
1850.0783443450928,-0.39569905196528493,-0.012165188006585623,-0.4511863792605778,2.8594673594194866,0.9361085120017155,-1.4463700460412399
1860.0804805755615,-0.3849023610476419,-0.014034147505732465,-0.40148776729563906,2.809906249014817,0.7287722631276001,-1.4645257825726918
1870.4326152801514,-0.3882850632528611,-0.012446518931357089,-0.4168170700130864,2.724789928818301,0.8159354935590115,-1.4652149536111185
1880.4314136505127,-0.39124743856077515,-0.011002297659442809,-0.44652058656525256,2.938066247597149,0.9576787835954538,-1.4692314366830244
1890.0792598724365,-0.3903247296525744,-0.006204612139418892,-0.4144865684767097,2.808206820895292,0.8243486187993431,-1.4700162532327696
1900.0747203826904,-0.39457622624820615,-0.01510950531190504,-0.44291023347413827,2.878930784842086,0.8978817120164507,-1.4506248534791062
1910.078763961792,-0.3913722407431807,-0.012860708733943836,-0.4121094494062803,2.8195251242209842,0.7922093915862652,-1.4614122433999142
1920.0704097747803,-0.38812879400049094,-0.011102451418639272,-0.4073761549218241,2.7835951671059025,0.8217007422398719,-1.4610426858765935
1930.4475784301758,-0.3912035910042672,-0.0072950735138973,-0.44535656446656213,2.9669769034097024,0.9611491308915209,-1.4691440979779544
1940.0746822357178,-0.39357954705929404,-0.011895405949816973,-0.4262938478723132,2.796149705782351,0.887042658575408,-1.4716396320252318
1950.0789642333984,-0.39125785880361585,-0.01059949727919886,-0.42756523004875635,2.9224373996330613,0.8343521676026789,-1.4538003888761657
1960.0722789764404,-0.38940234588846473,-0.013071130109399389,-0.42630143248351376,2.7555977253688146,0.7814537469837304,-1.4607921936183028
1970.4272747039795,-0.3870061746248546,-0.01310777447373659,-0.41569680793211006,2.832565002981018,0.8571130637092484,-1.4755635990976952
1980.0693988800049,-0.38927283536951,-0.008482521619070062,-0.4500597799962117,2.8747623250450887,0.8546900055304179,-1.444625172782221
1990.079402923584,-0.39138880120712527,-0.015574320674743668,-0.4168084130516625,2.7588133785444917,0.9033805957798842,-1.4716271108513412
2000.0784397125244,-0.392371227204585,-0.010256782901701832,-0.45126781222345563,2.9627597532850722,0.8695932882025815,-1.445948803112986
2010.077953338623,-0.3883059318760119,-0.01330527449795885,-0.3942839154575911,2.668086906524926,0.7268199979606667,-1.454447857058531
2020.0791358947754,-0.3922838134662634,-0.011565950573186295,-0.4453470133588879,2.9736881119276584,0.9561484960573644,-1.478585091228854
2030.4286479949951,-0.38820780714099895,-0.012407198381039788,-0.41684960318050324,2.784092737609528,0.8037972581217416,-1.465540057059146
2040.0736331939697,-0.39454467163944795,-0.012991344751675203,-0.4595212010499079,2.9354401306806936,1.0055350759920125,-1.4838520941068234
2050.4302978515625,-0.38915277904027934,-0.010483817889655297,-0.4192714420689924,2.888177685828948,0.7789752642429195,-1.4525441415318834
2060.075044631958,-0.3872568325815762,-0.011779241970522384,-0.4180094953239604,2.7222202275280263,0.7601948071099329,-1.4553859477833462
2070.425033569336,-0.39328778025975447,-0.013358072896126783,-0.4394195396612973,2.981361099793293,0.9808280142966016,-1.47913999964238
2080.0678730010986,-0.3904470401057439,-0.013406463090752722,-0.40137283823861325,2.6627795420102713,0.7748796273431586,-1.441821233311822
2090.0681018829346,-0.3976760999900038,-0.013758522234481672,-0.47255826293661446,2.993224507187612,1.0751327970823865,-1.4677468100050275
2100.076675415039,-0.38707401406361863,-0.005368494730155759,-0.4062440250815249,2.8502554395598807,0.7044938132510451,-1.4594440430461342
2110.0759506225586,-0.3915361540080758,-0.015664842040243123,-0.4369533092252248,2.7752581662258855,0.8295436522833151,-1.4576176742965279
2120.070457458496,-0.39016224827223417,-0.010998470963602106,-0.40147411437020086,2.8486290875748166,0.8410788611079708,-1.475343414020352
2130.3694248199463,-0.39038826093213214,-0.012546419453328825,-0.43104655721066704,2.7800046040349446,0.8297925282003069,-1.4392806636815505
2140.080690383911,-0.39126228263908525,-0.01216732645426131,-0.439393584408953,2.9031209143285275,0.9573022448533323,-1.4734486649672918
2150.080442428589,-0.3936759178920467,-0.01406385442066568,-0.4191660703724119,2.7542887827970857,0.7499580049379024,-1.4382744396377352
2160.0749492645264,-0.39357561406634667,-0.013247198761082471,-0.4417228353911334,2.8569132431608835,0.8727001838061913,-1.4633024873314822
2170.424222946167,-0.38916878926037757,-0.010372856215817227,-0.4002684269320751,2.7929504067291764,0.8160746646091327,-1.4654501672235156
2180.0808906555176,-0.3934528721719795,-0.010930400172311826,-0.44767146533933994,2.899207886478896,0.9333849456495131,-1.4418628173652348
2190.034866333008,-0.3892245483456052,-0.014346489048186802,-0.4156446973387501,2.76601388827645,0.882400795234629,-1.466648932844165
2200.0651359558105,-0.3914103420031566,-0.012073369191107488,-0.4488658571466876,2.891839702440297,0.8370251584167971,-1.4450188441168321
2210.0656032562256,-0.3892751082517618,-0.012859323745171434,-0.40497155492293097,2.732750756743299,0.790583292838426,-1.4469928845587088
2220.0608253479004,-0.3913839865734695,-0.009456446974380426,-0.4322718658441328,2.86468950804482,0.8433599970174482,-1.462359128647115
2230.4134368896484,-0.3913425213227056,-0.009404786580531094,-0.42159954879408323,2.8431573877332252,0.8766534763745579,-1.4759254563335522
2240.0665283203125,-0.39562020452320795,-0.009516658032546933,-0.4358119846851973,2.8982782026046654,0.9266812248248074,-1.4775081045758407
2250.4193782806396,-0.38824596467591366,-0.013504540929983381,-0.4121005235757042,2.7628976072635965,0.7503407307969103,-1.4557606888538106
2260.0743770599365,-0.39030698116214335,-0.012639054255419998,-0.43343881736602813,2.826247103136956,0.8788415210296627,-1.45377604996512
2270.42555809021,-0.3902591974863026,-0.012263353384609975,-0.4097536585376689,2.829343106413516,0.8042328980551806,-1.465967887281629
2280.074119567871,-0.3881914811559662,-0.010229927250336184,-0.4322642781065468,2.814368604679873,0.8811058088477307,-1.4712437628416208
2290.08150100708,-0.39344491239452,-0.01188665207044292,-0.4275346665041987,2.9015822543300938,0.89350488175288,-1.486047720246743
2300.065517425537,-0.3914581725747798,-0.010728319993345602,-0.43817863974338905,2.838424262073586,0.8252832986375881,-1.4531394209612514
2310.0764751434326,-0.38930269860371775,-0.012885207090649439,-0.4109109995505656,2.766492838028092,0.7719872424272263,-1.4605541443742653
2320.0719356536865,-0.3913300407918265,-0.016721666633226436,-0.4204044129069887,2.837659595078328,0.8457761271260313,-1.4627181314930189
2330.3215503692627,-0.39023836950616314,-0.006605911854627279,-0.4429730613169606,2.9242458229299504,0.9056445396955479,-1.4723940163386102
2340.0702476501465,-0.389196879834012,-0.014227545712190858,-0.41449599452896435,2.831701635995817,0.82847898046275,-1.479917087767192
2350.0776290893555,-0.3903905963420937,-0.01271925854879993,-0.4440991416013352,2.827882962460297,0.857292396307384,-1.4536502723504414
2360.0709438323975,-0.39133989203250785,-0.011486903042437923,-0.40382479672492044,2.8258940591817976,0.7608950768168515,-1.4563466516544163
2370.063066482544,-0.38925246384165224,-0.010547033404278443,-0.41923410677346185,2.8221517100952633,0.8026868441550613,-1.4657646315817183
2380.331039428711,-0.39350369469451724,-0.010766965244396853,-0.43581107178063394,2.8709353822199457,0.9023284763970644,-1.4679719691616864
2390.0797367095947,-0.39129489709252485,-0.009621820261299605,-0.4370228462913103,2.891582275858988,0.9193373546861704,-1.463628453661905
2400.4313945770264,-0.39130196272373396,-0.009478225375709014,-0.4370430802582065,2.924794944403933,0.8392098515866561,-1.4494073951996076
2410.0775718688965,-0.3925423280297233,-0.01345838297459777,-0.41087938241409755,2.7498749705195444,0.7919280356504098,-1.4564750272954377
2420.0801849365234,-0.3901122886320918,-0.008724460086657976,-0.41573015708614003,2.9249219100450983,0.8759716523420348,-1.4808547783146646
2430.3390979766846,-0.39256097066640466,-0.013612082338094482,-0.42273429229265275,2.7713593446719242,0.8119396196202607,-1.4570668082994416
2440.06609916687,-0.3944477724475473,-0.010344187260867,-0.4429340752898908,2.915238571896497,1.0000582707629149,-1.4607457386562956
2450.4261016845703,-0.387259296173343,-0.012860189753952407,-0.4168428533142287,2.754294607253255,0.6837129446145669,-1.44578803811828
2460.082530975342,-0.3923585778488894,-0.011556215008768031,-0.44293967151991925,2.90100388239346,0.952916282417743,-1.4644699859708383
2470.4298973083496,-0.38705390827852754,-0.006398963893451995,-0.38845978755878313,2.820219716411852,0.6915939746762988,-1.4768473179912849
2480.084180831909,-0.3935673135128687,-0.018678080513706317,-0.4641932558953711,2.810356320343681,1.0307743235312024,-1.4433290890340156
2490.0779724121094,-0.3869328046101575,-0.005537688460144658,-0.4110251251265203,2.9361777763261543,0.7913086142722822,-1.4882347019307811
2500.0228881835938,-0.38739588170266326,-0.019469396818886896,-0.4345354064560684,2.6400268651711567,0.8233926107592804,-1.4564619652568573
2510.0793838500977,-0.3868983862322897,-0.005842270313810913,-0.4264261502535111,2.9449878399739347,0.8799802819335879,-1.476212936858584
2520.0674533843994,-0.39048395959200427,-0.016756369512173856,-0.3812135106696256,2.62416062763037,0.6896565973570721,-1.453934617110826
2530.3211212158203,-0.3921852885539076,-0.007337829961868964,-0.49042767883205196,3.1024482358368695,1.1112565869715096,-1.4638425485403124
2540.07887840271,-0.387351993503144,-0.014979341378382789,-0.387152201838357,2.609745598833069,0.6404988594611913,-1.4528588872647799
2550.0917434692383,-0.3944862551265531,-0.010690481349750924,-0.47139250569397667,2.978680740088573,1.0365634734291396,-1.462112960179958
2560.074806213379,-0.3882670490196633,-0.011826259681917885,-0.3872195598137554,2.7405124214069936,0.6342687985438775,-1.462589671439589
2570.4286098480225,-0.3882205127716334,-0.01155120966559735,-0.4322360343400233,2.7672133604602203,0.9271672089438041,-1.4760592531270147
2580.066919326782,-0.3879820821085661,-0.012549114397621849,-0.42402710896802054,2.916739089991943,0.8710914646352952,-1.4675889806862974
2590.081214904785,-0.3925186737971002,-0.007782770892142855,-0.439346404125512,2.8176938345406155,0.9083118373616876,-1.4628125670931527
2600.0595092773438,-0.39129008871164006,-0.01178535718054226,-0.41923917151795687,2.8609375765867564,0.8493438738356777,-1.4579854966759012
2610.074281692505,-0.3915355068462792,-0.013058024301422127,-0.4322344617681214,2.802805014527732,0.7757625717543025,-1.4613286813685171
2620.0790405273438,-0.3891045232802295,-0.010639915190823393,-0.41451182654508956,2.85406684737552,0.8965894362057729,-1.4806324047674777
2630.32603263855,-0.38813850768021074,-0.013580377662832713,-0.41092952963736934,2.7889399513284965,0.8104996940020106,-1.4567391099514566
2640.078544616699,-0.3935051078207591,-0.016168546512201305,-0.4618594779070001,2.870972573701744,1.0262132459915045,-1.4614304389634705
2650.428056716919,-0.38703083242722025,-0.00916074718189341,-0.407417957822221,2.8409849968902727,0.7576103993023096,-1.4604269067375626
2660.078287124634,-0.3914947700433346,-0.015734813673911805,-0.44645875291301634,2.8294908343807252,0.822217561898964,-1.4446395135124672
2670.4273223876953,-0.3890347829990871,-0.005571034487789137,-0.40863359654536396,2.9227196872317927,0.8574644881967228,-1.4891014829289375
2680.4280281066895,-0.3914736731940429,-0.015598371958324083,-0.4286619848372276,2.7739911391044307,0.8437777071300976,-1.4576827031147357
2690.0687217712402,-0.3891442315023476,-0.00961517043936073,-0.4275388808718402,2.850295551085727,0.9360347793263014,-1.4766861340609234
2700.068235397339,-0.3914484870325294,-0.016748484767966147,-0.4251112612965786,2.779254956195585,0.8204276936999624,-1.4485258232716944
2710.075616836548,-0.3902638495479128,-0.010034578179331637,-0.42635439032734174,2.859987780674664,0.843658695013621,-1.457747919516073
2720.0796604156494,-0.3891899330054515,-0.011484795858617157,-0.3955289265724197,2.791378297532377,0.7738494614392551,-1.4694264793682508
2730.3640842437744,-0.39448734310870387,-0.011450615086046676,-0.4405611862190304,2.9075853677982475,0.9391156634026282,-1.4510106650805934
2740.077257156372,-0.3925526107116024,-0.011238289741827279,-0.4251124712077635,2.786488005347731,0.8501903864766974,-1.475416968491793
2750.065326690674,-0.3913299251155633,-0.014553990379593987,-0.44174382594331835,2.869106896907362,0.8931900140909491,-1.4412213268319278
2760.0765228271484,-0.387138161241118,-0.007987780494313855,-0.41094745945815886,2.7962496688320324,0.758736063777414,-1.4689734723634107
2770.073652267456,-0.39233556765167743,-0.01730088582032843,-0.4132838542311856,2.82631851290795,0.8857502795940089,-1.458700666736069
2780.4195880889893,-0.39447205821003956,-0.006739774302185106,-0.4595661397149521,2.9995839598212317,0.9593502430703785,-1.4607705496515504
2790.0688648223877,-0.3904281911276201,-0.014758821777792074,-0.4085032856717236,2.71527964548577,0.8093202306853814,-1.474290941355972
2800.063133239746,-0.391344231455569,-0.012201941794414969,-0.45361718774904,2.9187802414247646,0.8902651366506112,-1.445992985192741
2810.0740909576416,-0.38717370824414793,-0.009226163671902031,-0.41093429737524273,2.775536155044567,0.7589806846837531,-1.4734086816232506
2820.0347423553467,-0.38597408599387417,-0.013546875315913694,-0.40146268430484666,2.7804971129204605,0.8155200532022284,-1.4833623301877683
2830.078125,-0.38903365750031044,-0.007251813717861671,-0.4430073546394087,2.9731996298266545,0.920958441838068,-1.4550433615876543
2840.064764022827,-0.38933065161639063,-0.014355539934182562,-0.422744856349226,2.753995062006614,0.8378892163331915,-1.466066459089767
2850.0683307647705,-0.3924038291524827,-0.011478071003426524,-0.44175227656329985,2.8943284616102165,0.9111845635656542,-1.46385747077826
2860.0687980651855,-0.39031946169302245,-0.009648682165436228,-0.40976700195094345,2.8446150305780513,0.7131361588227881,-1.4557066461542174
2870.065927505493,-0.3903237573466868,-0.009930360118997153,-0.412093145305946,2.7721085985867124,0.854673760831408,-1.470437377358375
2880.063533782959,-0.39011197599354275,-0.011479252777142028,-0.4370610976177897,2.952666455333453,0.9232188122951159,-1.4642785480080827
2890.0604248046875,-0.3873709300200615,-0.01306710645127276,-0.4155899980982038,2.635111905804989,0.7914660778039098,-1.4731023958894918
2900.0847339630127,-0.39761693627097666,-0.013744575428807408,-0.4725798349965007,3.0327437893249973,1.0746197666025095,-1.4680619402833395
2910.0828170776367,-0.38510569490718993,-0.011049381024933611,-0.367051187611543,2.635604567883394,0.5984643626798645,-1.4652066186674
2920.0797080993652,-0.39342295578921843,-0.009889720234002773,-0.4571777031290461,2.9603867235268644,0.9946739815332599,-1.4790320486777695
2930.3667545318604,-0.386068208955459,-0.012097339188665148,-0.3931537396082236,2.740879646646738,0.7279608254054011,-1.4771911266037037
2940.0687217712402,-0.39677674518141903,-0.009675981763541501,-0.4891213499185931,2.9363072055590864,1.0750867422977222,-1.4580507693521771
2950.0815868377686,-0.38807077766493897,-0.011942611244341986,-0.3848717631128438,2.7795845209957077,0.731901206001691,-1.450695763028422
2960.0753784179688,-0.3926058405509681,-0.015285573963588091,-0.4535417011713656,2.8013009292264406,0.8869009926696652,-1.4498432914966568
2970.0660705566406,-0.3868489236874404,-0.009187774784461014,-0.39915947298741883,2.905214657818074,0.8394398410088982,-1.4888037509858816
2980.0708293914795,-0.3914886767180131,-0.01196363931315286,-0.43697122341408684,2.797879425450896,0.8293228200441751,-1.4439969162386965
2990.0825023651123,-0.3912627047011265,-0.008502274122600649,-0.44178185529642794,2.93244819852435,0.9612878267310475,-1.4868683182784301
3000.0715255737305,-0.39147265399237297,-0.012956126019121824,-0.4251326145094805,2.8084694560348282,0.7633970574710109,-1.4476701503211864
3010.0796222686768,-0.3903216689211789,-0.011420639301961308,-0.4370142018354283,2.867048037627121,0.8676060794250177,-1.476308329132678
3020.0676918029785,-0.38704980646076365,-0.013959539442381017,-0.39553642364482655,2.782841245497577,0.7492283034379739,-1.4646406834922483
3030.4043292999268,-0.388138764043821,-0.01163715087635286,-0.4429401842471397,2.8479527472224437,0.9272102530192408,-1.4634083967663671
3040.08150100708,-0.39012936182325686,-0.008803835887882841,-0.424025933447076,2.932864332938712,0.8729016324552884,-1.4675393399374752
3050.0736236572266,-0.3938046655729417,-0.016763238181097064,-0.43572511493795096,2.721862928562215,0.7787370805643061,-1.4478052820812537
3060.0743293762207,-0.39010919976322694,-0.0077606016926278585,-0.43588646456674357,2.961841355662463,0.9155769851136675,-1.4638860521944164
3070.425510406494,-0.38503987823983843,-0.016134775296130093,-0.37535456108922155,2.6725448070906577,0.6517626886460925,-1.4712628462986566
3080.076217651367,-0.38900324089587085,-0.007585802353453972,-0.4560369663494908,2.981367621433427,1.0399208581646546,-1.4702785757337573
3090.0797843933105,-0.3882134877834357,-0.011033605283747246,-0.4061743785919472,2.750573558231069,0.7803110437077014,-1.460220083831807
3100.07643699646,-0.393532366775853,-0.011171294427145777,-0.46781392918499043,2.9153488551446833,0.950616669570015,-1.4424846398074194
3110.072612762451,-0.39044983509437264,-0.01681429830893213,-0.3883550817823121,2.6909720889602955,0.6897128660431349,-1.4680232950322882
3120.0780868530273,-0.3934773705286851,-0.011972155587229647,-0.4358170931990891,2.883291223466529,0.8906577325086134,-1.4590716717758718
3130.2969455718994,-0.391286890419283,-0.01192077969445997,-0.42753698628223286,2.8752821554134087,0.8804135676987523,-1.4586158791615595
3140.077590942383,-0.38926154911788835,-0.010795271538630207,-0.4286939740135691,2.7970419949597267,0.8874554821475353,-1.4667874692380314
3150.06160736084,-0.3891750326522026,-0.008435084972018768,-0.4441614160739257,2.9198333393662432,0.8724982943367401,-1.4585952200062366
3160.0749492645264,-0.3871512983129502,-0.01409492756605835,-0.4085582068856398,2.771625071806711,0.743272498435066,-1.4646442975938756
3170.4258918762207,-0.3880554333649503,-0.010023066827954634,-0.4192681875016966,2.871762264286469,0.8523570091384197,-1.4711650248230361
3180.0575256347656,-0.38820617829415827,-0.012427923190458042,-0.41684583275960135,2.777482305001481,0.8152514529191752,-1.4656351273155346
3190.079689025879,-0.3923532692463261,-0.012776215039670588,-0.440564700276322,2.8930946304499026,0.9603049630396191,-1.469070987453253
3200.078248977661,-0.39032427945306375,-0.01127959867331667,-0.43227828431354537,2.8665664210686552,0.8139049311938472,-1.4620937516675028
3210.0744247436523,-0.3881944137055565,-0.011128547358330647,-0.41092502764226263,2.777449134051424,0.8109327921840456,-1.474349564210309
3220.078229904175,-0.3881045895240215,-0.012510290942597587,-0.4228071808439843,2.850760860417473,0.8414979812204764,-1.4666513620456914
3230.372667312622,-0.38807406662247523,-0.008889539493341005,-0.42637087888442,2.8606906171440705,0.8645816234804136,-1.453277213275371
3240.0736808776855,-0.39142607710133165,-0.01208726597461394,-0.43579062521952433,2.8104754356308788,0.9126284721990194,-1.4720665243320676
3250.429630279541,-0.39355502994427555,-0.013172768901703978,-0.4393589878271123,2.8633153490717533,0.8457045297719076,-1.4495224586912097
3260.0743770599365,-0.3871553501085462,-0.012931080544955339,-0.40973993057897895,2.76599242251367,0.7739375817406975,-1.4738619262333879
3270.066738128662,-0.3924069774226719,-0.01504312902155071,-0.4298767137821928,2.8437251299591906,0.9027288569549385,-1.4635309948470019
3280.0605297088623,-0.388053685715461,-0.009855845847210375,-0.40265370586863536,2.810020943592931,0.8474885953994383,-1.4703796111336622
3290.060043334961,-0.3946436717623983,-0.01288865549384575,-0.45830745691637237,2.8763455735533916,0.9415117189899752,-1.4556231747879995
3300.060987472534,-0.38804276837732726,-0.00877661757580028,-0.4264041123621868,2.920088968275895,0.8069686291733276,-1.4530119488456366
3310.0602626800537,-0.391614066660891,-0.01401668976915209,-0.4108589077155186,2.6999723025000097,0.7291819853253206,-1.4642044495455662
3320.0631141662598,-0.3890533974982991,-0.009641894782535751,-0.44064388224164647,2.990641615676952,0.8940062883315025,-1.4774549716544254
3330.0578594207764,-0.38711197150986193,-0.011359734186215806,-0.3765179704163558,2.6501629352026748,0.7640079938389166,-1.454300322927222
3340.0607109069824,-0.3966919138375128,-0.01206502174184717,-0.486783901553656,2.999943869318928,1.0587855932713157,-1.467527100138279
3350.022792816162,-0.387071844352088,-0.009055347347843464,-0.3991019912637857,2.793683797363984,0.7383369205565866,-1.4596815076560847
3360.0778579711914,-0.3925881795993308,-0.012693353318623488,-0.4488324329594059,2.848470798677419,0.8443512362956064,-1.4673099789187165
3370.119333267212,-0.38804238383191186,-0.00981173567432127,-0.4086126841528163,2.876880151082071,0.7942398007585404,-1.4703101803646834
3380.0718784332275,-0.3893402871364731,-0.01184683442483261,-0.42037376807640825,2.7424086523667763,0.8226617056009375,-1.4565414317232614
3390.082597732544,-0.39339836989371907,-0.009974904859469455,-0.46904598768473077,3.0019278641722074,0.9800846817559332,-1.4524375724296599
3400.076150894165,-0.3893837313892527,-0.01150749654366556,-0.394266535880648,2.646426466847249,0.7679002687416601,-1.4547032608684276
3410.0799560546875,-0.3945524532129344,-0.016457724664554575,-0.4535964191702249,2.9322334908743866,0.9097427214730984,-1.4559547998761608
3420.081615447998,-0.3870122179280083,-0.007975156149702187,-0.3991044986249493,2.800807663755636,0.8294511269047159,-1.483223037208613
3430.3581714630127,-0.3903562936404891,-0.01249526866031449,-0.4263246458957827,2.8119980916619856,0.8328647521888243,-1.46641822435326
3440.072536468506,-0.3902903206538631,-0.007796420691195489,-0.43463981209953234,2.8495729058378507,0.9208072560885057,-1.4764740807122416
3450.425863265991,-0.39143510610262894,-0.014399287446354754,-0.43816759109706477,2.822751638459856,0.8136924870469793,-1.4263135390382722
3460.080862045288,-0.3923379437046504,-0.009789769689863207,-0.41332586034663943,2.88465197024584,0.8171637660059224,-1.4575796887128152
3470.4298973083496,-0.3861352324076099,-0.013541541702266489,-0.4061626921629828,2.708967151162221,0.7676052505012101,-1.4687697946014588
3480.0798892974854,-0.39120175581598415,-0.008443813840308956,-0.4406167139517318,2.9653570230426043,0.9416613071565514,-1.4734155940615707
3490.079879760742,-0.38724386120817506,-0.009531786611936698,-0.4263092984694085,2.738151540782803,0.8370013478648998,-1.474322195831723
3500.077247619629,-0.394534664079492,-0.012579352798088445,-0.4393849399530711,2.9262134136385596,0.8857804898570061,-1.468503942411252
3510.0810527801514,-0.3872003669332276,-0.007990087766806058,-0.4133058483531131,2.776882745550376,0.7403088194244024,-1.4686075664583433
3520.082712173462,-0.39134833952610387,-0.013111798131863204,-0.4251541427999698,2.854134846259944,0.8653550287231176,-1.4762671765204631
3530.0638675689697,-0.38912132134947136,-0.010655128182621447,-0.4168746674129827,2.841375319866023,0.8893262268127974,-1.4670160893034287
3540.059804916382,-0.39360685291017034,-0.013266147783541996,-0.43338424630728695,2.769949447986313,0.9221518738450699,-1.4631275097883354
3550.0802993774414,-0.39232803618903017,-0.01025458192631633,-0.4477141373749033,2.9621826193970926,0.8919345827332799,-1.4461875182771327
3560.0826740264893,-0.3883325811859351,-0.00846376643251097,-0.40378857754901,2.7126237685058276,0.7200699441029877,-1.4633451249768052
3570.0759887695312,-0.38805436414111244,-0.011270322687565603,-0.4240217878599153,2.9044787910859577,0.8372874496539301,-1.47589891019435
3580.07550239563,-0.38810918218430746,-0.010187542842237992,-0.4311025570275775,2.853840090635875,0.8727624739107093,-1.457991152307254
3590.0704860687256,-0.38926155849704486,-0.011893476969969246,-0.4215854738066038,2.7951010535610403,0.8525453488531539,-1.4708245301792375
3600.0711917877197,-0.3924055080214912,-0.01026409239097924,-0.4453091840944497,2.895948316966231,0.9001047034085713,-1.4457230499430835
3610.0752353668213,-0.39141552867668583,-0.012834175100283793,-0.4085407116324335,2.792536839077302,0.792274476679412,-1.474596211014446
3620.0757026672363,-0.39023704391871505,-0.012492642496502242,-0.42755211486162265,2.8911971864525494,0.8395498460087761,-1.4671657024810891
3630.3088665008545,-0.3925249609583221,-0.011118433501268019,-0.41086767097404914,2.725180480020192,0.8606251326196899,-1.461415466703355
3640.066385269165,-0.39443821821348757,-0.012974524797734964,-0.4654829243005497,3.002589770002769,0.9746662117537078,-1.4437262775523034
3650.0654220581055,-0.38933155514179746,-0.009248592361412785,-0.41208070541807823,2.7299718189776696,0.7916158004050622,-1.4467255004396116
3660.064458847046,-0.39132293764399145,-0.016798947756172498,-0.4239512284657743,2.8250808269143266,0.86896145194767,-1.4495142175390558
3670.073986053467,-0.38915654633479574,-0.007968581361015133,-0.40976801177345695,2.829355064838018,0.7976601884144652,-1.4429813005328669
3680.079698562622,-0.39147301665308987,-0.014589596783948246,-0.4428877453833032,2.796726561422022,0.8905921847104141,-1.4540637368315943
3690.062999725342,-0.39226700601786507,-0.010074489616506624,-0.4263712352923659,2.9193266554489123,0.9129276329002447,-1.4592792825307712
3700.0813484191895,-0.38846362676016577,-0.013776902254781826,-0.43694264512431585,2.7074608430008458,0.7423950314513021,-1.4420851596485667
3710.071563720703,-0.39323392514329064,-0.011935104792778687,-0.4299553642619838,2.9942926711807707,0.9302292002726101,-1.4604115968278142
3720.0706005096436,-0.3861205446485743,-0.009556481930928198,-0.3907758108039521,2.716167914131404,0.6901669453981982,-1.4672658718722131
3730.085849761963,-0.39449373969341794,-0.016572266049779513,-0.44763777228290597,2.86539147537906,1.0083471253063743,-1.4431640752814276
3740.068197250366,-0.3902087470036382,-0.009954989783893345,-0.42044918587360186,2.891933472120322,0.8389006145449939,-1.4713177393751034
3750.1726150512695,-0.39279148532140934,-0.016321995764858762,-0.4463873368892509,2.713854304455834,0.7962589768277473,-1.4524596103209841
3760.0793838500977,-0.3889249624559532,-0.006883966327404429,-0.4145900049406715,2.988570557240526,0.8836654775669655,-1.4812074471035641
3770.434856414795,-0.3863341236733755,-0.01688958167154963,-0.39664146022846286,2.6262231635399482,0.6043498834105547,-1.4527507424642692
3780.0872325897217,-0.3931238482365465,-0.011242797989704949,-0.45248950675529415,3.057254535896287,1.1216965479255006,-1.4860100660598923
3790.0893688201904,-0.38628310418855183,-0.009560233593517101,-0.3978520091960268,2.6581798786208464,0.6347660626617249,-1.4527176309155365
3800.0714778900146,-0.3934304341033123,-0.012882590305993662,-0.49034231287622676,2.970113552824028,1.1078013651284466,-1.4498723137331675
3810.441255569458,-0.3869107667188331,-0.007367590025355436,-0.3719020123057533,2.8630936664557605,0.651120366494245,-1.4676017269599433
3820.0860023498535,-0.39267693455702796,-0.0177623403187645,-0.4535153770055334,2.7598739016515106,0.8873902344823431,-1.4587137100163363
3830.3940296173096,-0.38892775744458197,-0.008283499045113774,-0.4145538701771693,2.928146676634481,0.9753726466928141,-1.486508261840616
3840.0838375091553,-0.3937758809417283,-0.01221150228124573,-0.46301179481841315,2.7954749473810367,0.841599269857606,-1.4311794860591014
3850.4347801208496,-0.3901413608907704,-0.00794330453432232,-0.4382242693396267,2.9092139926655634,1.0000146232950784,-1.4780363886905272
3860.0800037384033,-0.38830298056810864,-0.012029524760985125,-0.4049978259402098,2.7630077248133524,0.6472422478650037,-1.449726649180382
3870.4326152801514,-0.3925049864814217,-0.014151571418379904,-0.4523718765012043,2.8281605260905525,0.9585596896032577,-1.4598270534062217
3880.0814151763916,-0.3880860938274582,-0.008438355171242072,-0.39554688765706414,2.8034728573643406,0.7785816866998735,-1.4647358256555032
3890.0845050811768,-0.39255185725269914,-0.012954497172281131,-0.458296752172452,2.830036479314042,0.9402839092481168,-1.4550824070160484
3900.0227451324463,-0.3923140925097414,-0.00884760528475346,-0.42992369085057686,2.9142711150327667,0.8906837377831255,-1.4543952712545765
3910.0773334503174,-0.3904572164905163,-0.017139654994184482,-0.4168059963556781,2.7350167046720624,0.7147484451995292,-1.428733789722932
3920.081615447998,-0.3934140549697262,-0.010804012912462357,-0.4286961812417256,2.8565602492278925,0.9699194550533282,-1.4686395400027572
3930.345058441162,-0.3880756548263045,-0.010971252651519544,-0.40385229328531164,2.8358537229119993,0.7751458578260098,-1.4608160229285134
3940.082311630249,-0.3935921276345089,-0.014985312774670094,-0.46895806747195967,2.8532733019574845,1.004536445938554,-1.4564978530359058
3950.070381164551,-0.388181905037208,-0.009758315125440644,-0.40738317678363634,2.791278900358469,0.7534149931887677,-1.4556168813740067
3960.080146789551,-0.3914439944165792,-0.014366519800026092,-0.4358074889428615,2.8419408642429884,0.8096206513199593,-1.4532853074874066
3970.430374145508,-0.3859006003029139,-0.006505361044473484,-0.4299665223318003,2.908804820711689,0.8628149155451276,-1.4712437159458387
3980.0779819488525,-0.3880735257577853,-0.009859419305826313,-0.4073965076913689,2.8174817749391625,0.821285111173574,-1.456712520042858
3990.079402923584,-0.3924365999251968,-0.011694051092284644,-0.45240058922555143,2.8760374807688196,0.9694727821054925,-1.4646072718105085
4000.077247619629,-0.3880790219434781,-0.010019543391506538,-0.42757904554624,2.9061464176122707,0.8034702100619389,-1.457469305420293
4010.0789070129395,-0.39366594784871667,-0.01660344549227887,-0.4191595862489041,2.7521727606845316,0.7955281248179579,-1.4615008795549627
4020.078420639038,-0.38691568452321007,-0.006990041460720397,-0.4252410062944451,2.9440578278292278,0.8380320139904819,-1.4667951945365791
4030.3385257720947,-0.3870999630631919,-0.014007329370992761,-0.3931249612297812,2.7034988121850327,0.7801876640306942,-1.4509158324295022
4040.079355239868,-0.39446989787766545,-0.011713853617983126,-0.4571763243930447,2.9755683389201137,1.000980320003777,-1.47948760681317
4050.4252910614014,-0.3914858598446859,-0.010347426196235398,-0.41327423434303057,2.775606998939788,0.7436994220057566,-1.451238300334561
4060.072898864746,-0.3892010410531002,-0.011964417783140046,-0.42753621093863114,2.8486438534934893,0.8676797026769396,-1.471535607800798
4070.423126220703,-0.38704537324613775,-0.011671547369522164,-0.41453800689718917,2.873092597587726,0.7465825653261784,-1.4698404096808417
4080.0764560699463,-0.39139104907829314,-0.009473301318561092,-0.419184315958136,2.7572045218126338,0.9190670317647118,-1.4622956755271945
4090.0797843933105,-0.39447429357566544,-0.01142830519918464,-0.44176640157294716,2.947200217287314,0.9236955579449873,-1.4645983522327035
4100.076675415039,-0.39137688342563454,-0.009533728097326432,-0.43581868140291846,2.852110739880818,0.866545321839087,-1.4491552146931521
4110.076427459717,-0.39131918910778807,-0.014109796655452391,-0.4085470644477507,2.804909872317699,0.8259593419833386,-1.4528357582649194
4120.0690269470215,-0.3892337336661771,-0.014216522076950431,-0.41922921710655425,2.8195394461929175,0.7910441720819317,-1.452494316326317
4130.061864852905,-0.3891239225021996,-0.009604903389409102,-0.431107968800862,2.8773316073997077,0.9132323147982467,-1.4632069825075105
4140.070915222168,-0.3881711815349747,-0.011317865631723597,-0.42872486582860325,2.8394637195951677,0.8233932110252944,-1.4618016722294143
4150.070667266846,-0.3913997935785108,-0.008493770354065797,-0.446482894861776,2.861030971100522,0.913253874352591,-1.4588252594506466
4160.077810287476,-0.3892252361504132,-0.013973902057325568,-0.40620745262405394,2.830786199060268,0.7289069884575534,-1.4650556736495208
4170.065879821777,-0.38815539328824633,-0.009961423885233344,-0.41330306899641184,2.7918732762624305,0.8375646756345522,-1.4702438603492678
4180.067300796509,-0.39132547939539547,-0.010640296609853273,-0.4299283960607405,2.9159703305580784,0.8387295918794929,-1.4807357568190314
4190.070629119873,-0.3871371201547496,-0.013217598143255991,-0.41919328868449446,2.727774576496451,0.8814954596506004,-1.4616243811610041
4200.065851211548,-0.39451560250715484,-0.011603748573769565,-0.4631164943421132,3.0032292752812895,0.9025314976180634,-1.451611631405169
4210.067987442017,-0.3904716072429303,-0.015640396832090838,-0.39071532149747684,2.6724873816419636,0.7054035851760849,-1.4635073906365466
4220.0586795806885,-0.3933832381879438,-0.009627238287355067,-0.4393984303064637,2.931601998521879,0.9474416687848743,-1.4644987268326548
4230.429410934448,-0.3880948852234582,-0.010941548862971825,-0.40028458721867677,2.8089781721027283,0.7750917932417181,-1.4605494673015713
4240.083694458008,-0.3902915680816739,-0.009338310245841074,-0.45477766765296945,2.858303381090193,0.9833490502703273,-1.455325477235184
4250.425815582275,-0.3891447129657132,-0.012877825694505764,-0.41334094515663233,2.878809084034087,0.7745872759095322,-1.4615338566691192
4260.082721710205,-0.38934154394344045,-0.011979702681804368,-0.4334277343294634,2.7904475162968385,0.8273050445956682,-1.4571653332117973
4270.426988601685,-0.3891296906834301,-0.011619899481214823,-0.4074125991974899,2.865555047867937,0.7931770047692698,-1.4704384340766707
4280.425310134888,-0.3881731042620515,-0.008853163998156052,-0.4215900852252027,2.780962159635825,0.857500444756252,-1.452473266372808
4290.081262588501,-0.3965846819415652,-0.010323984557825704,-0.45243516079630824,2.989369183034984,0.9716837806828705,-1.4612535980945711
4300.07266998291,-0.38824860334526784,-0.012142587365872929,-0.3990453380323077,2.7092260690294094,0.7457947912157588,-1.450491491253227
4310.070991516113,-0.39243218546888387,-0.014109696611116706,-0.4571605611574003,2.92115761998519,0.9199950992976438,-1.4601456758571267
4320.068120956421,-0.3871382862965376,-0.013760888908298154,-0.38247493530828064,2.7216120955279055,0.6994003654108243,-1.4767718939413201
4330.330371856689,-0.3914048364383074,-0.011004060940859555,-0.44765253820157885,2.83961296385934,0.9324472957450521,-1.4546675294086537
4340.071201324463,-0.39131549997290893,-0.011703639716584816,-0.41330897473860384,2.846801324457281,0.8338156392094532,-1.471040072574127
4350.074768066406,-0.3914932787574555,-0.013435344639916361,-0.44999420718692856,2.7922653468876697,0.8913626042549745,-1.4360808550275408
4360.074758529663,-0.38798619330548645,-0.008593971009044648,-0.4098173617684286,2.9109272894311253,0.8015353244719484,-1.4660972321021526
4370.063781738281,-0.38615436588681334,-0.013540572522764372,-0.4097173987187471,2.709657019384612,0.7451448062930734,-1.455080556195838
4380.06854057312,-0.39011964814353706,-0.009022157639473513,-0.4323086665277446,2.920767181333176,0.9497881055080974,-1.4685500034486876
4390.069007873535,-0.3914319453268978,-0.01190477572713282,-0.43106224853944514,2.823214684288507,0.8360189343729819,-1.4576618063541156
4400.069236755371,-0.3904014667844451,-0.010126740897213703,-0.4310488957470141,2.781639109633369,0.852791995657291,-1.457291345305388
4410.066843032837,-0.3923717743220459,-0.01487206571303831,-0.42515894805446913,2.8762001341003613,0.8372314936064165,-1.4494314339776462
4420.0758934021,-0.3859966147277206,-0.008488014678377311,-0.3967280486010149,2.7705451588568786,0.7621566421428536,-1.46412213494198
4430.079221725464,-0.39138052253834577,-0.013322160105994423,-0.43936435270461444,2.8497068276867332,0.9010117928948602,-1.463432782573195
4440.0787353515625,-0.39240945039359504,-0.010010505011052754,-0.4227716963686642,2.833243838189012,0.8795370448834064,-1.4580972555780394
4450.087070465088,-0.3925113361703534,-0.010208980467548133,-0.4464764076118827,2.863295540293284,0.8513999350009046,-1.444839699101826
4460.078239440918,-0.3914612114214768,-0.015392658919417589,-0.4144445842459543,2.7652460636318468,0.8082919531183143,-1.4704120536358998
4470.069408416748,-0.3881102701664582,-0.011136697845305046,-0.41213195625542826,2.817241681039014,0.818011766806436,-1.4613313888183523
4480.075359344482,-0.39131354910836275,-0.010873725056135328,-0.4417692559629002,2.911125708612682,0.9044388053616398,-1.4682572956071152
4490.082740783691,-0.38809502278441976,-0.008810376286329512,-0.4156845306162879,2.812860079911185,0.8754797437225333,-1.4663382701707193
4500.077724456787,-0.3946210836272276,-0.017475500702758297,-0.43101529960853036,2.7897381581872986,0.9013196199366658,-1.445538064839981
4510.059833526611,-0.39023589653524,-0.00875326660256979,-0.4263812522314783,2.9069825193896066,0.8204538240298941,-1.4666781364110342
4520.071268081665,-0.3882088951231497,-0.01335635338410687,-0.397879002408354,2.747494328012667,0.7490465510174684,-1.4688802935702443
4530.077695846558,-0.39226370142840133,-0.009140441308130924,-0.4488999628860063,2.963177594705912,0.9565010804338558,-1.4424499212965445
4540.079593658447,-0.39048561970269985,-0.01121679584157829,-0.4227334669268832,2.7399056212470922,0.810802887740519,-1.4743465816385508
4550.074815750122,-0.3944936427754678,-0.014093773929812247,-0.4547847958118884,2.9342062244871285,0.9629524237898199,-1.4474768365271364
4560.083389282227,-0.38706843033913213,-0.009031558680644262,-0.3979115074383015,2.780462907136806,0.7306776262594015,-1.4460087234173018
4570.072174072266,-0.3892627652818443,-0.015537804492211597,-0.41920097334003076,2.7723842019732645,0.8371055721780052,-1.457309806611711
4580.081462860107,-0.38805569910771703,-0.008989024206042433,-0.43230962320170474,2.894337156088266,0.8914603319390302,-1.4674288409686898
4590.078115463257,-0.39032470151510495,-0.010121773070668876,-0.43464194429443703,2.8546443751880717,0.8408788349642718,-1.4577779609542536
4600.085496902466,-0.38925191359780587,-0.013114955781208883,-0.41920434358358977,2.7741314419061,0.8599858899575508,-1.4618699649940743
4610.08095741272,-0.39237848667169456,-0.010055718798020094,-0.43704322094555353,2.940841583766693,0.8342785443507571,-1.4585731102080457
4620.076417922974,-0.3828339256486426,-0.012688682498700322,-0.38010794885322685,2.669026572948029,0.7378647488086882,-1.4719162389815268
4630.087852478027,-0.3900969662168016,-0.009339801531720164,-0.461974375700171,3.0240496676831414,0.9706349033618047,-1.456603865641512
4640.084505081177,-0.38828365950577576,-0.013535639086459963,-0.40733237927218247,2.7093070611719328,0.7885114403000852,-1.4692077199226914
4650.084495544434,-0.39342909913670776,-0.01227861952496133,-0.4583576510354265,2.9525105925111967,0.9452459551061608,-1.4471927637622894
4660.0823402404785,-0.38822915722751533,-0.00950585324429087,-0.39314935641576554,2.749785480861257,0.6841315457470811,-1.4541903241801153
4670.212507247925,-0.39024656063614893,-0.01268126045954525,-0.4322671418756563,2.852224484037743,0.9163822544772934,-1.4679098103653592
4680.415868759155,-0.39022511363168233,-0.010029822947000182,-0.42755686696756856,2.893104931890095,0.8395736346759753,-1.4579801536830974
4690.08207321167,-0.39358273597249466,-0.013358026000344423,-0.4369406411112162,2.776993700971443,0.9565685228216624,-1.463679276184443
4700.082302093506,-0.39347331873308905,-0.013325023875103934,-0.44649608820854697,2.9234208354530344,0.9026897521252201,-1.4642965747468224
4710.082530975342,-0.39043714196928014,-0.01227323276276077,-0.41681650726369807,2.7451216171457795,0.749054885961187,-1.4377590362312704
4720.435380935669,-0.38801430263743386,-0.009940520871842095,-0.41097344284797255,2.8639325757272664,0.8553078793477277,-1.4710299399587514
4730.318784713745,-0.38709396040304966,-0.011834035002633445,-0.4204281296673216,2.8147051757098804,0.7971574249845397,-1.4566508708473656
4740.070343017578,-0.3891548580866307,-0.01096962380467885,-0.43701643094828324,2.8574207461912127,0.9520327096031156,-1.4682282796233754
4750.0739097595215,-0.39461638466983495,-0.013714324522798804,-0.43700005806746817,2.8986639485520573,0.8365822371315504,-1.4722094189073083
4760.069847106934,-0.38721900956990907,-0.010651013859315581,-0.42513614732508503,2.7571177896263492,0.7833087252869626,-1.4514639034379597
4770.066022872925,-0.3901954223486766,-0.012375743816617284,-0.4156968548278925,2.869665041129871,0.8422756414738334,-1.4668691054159662
4780.086040496826,-0.39029662969978346,-0.01115974243275741,-0.418033484079831,2.805258895741116,0.8243396773368394,-1.448092249879065
4790.062189102173,-0.39240739010555664,-0.010279871258551093,-0.43937348487663297,2.8749933555536997,0.9416245721270351,-1.472913587216934
4800.060033798218,-0.3946298062427468,-0.013583041343270855,-0.4227446468813981,2.817620667740975,0.8359048087970272,-1.4579027600102739
4810.063123703003,-0.38824210984260354,-0.010123961540512415,-0.4346487097926391,2.841226938484246,0.8052365803475919,-1.470507549080715
4820.063591003418,-0.3892000687472126,-0.012804896500162834,-0.40144596126885657,2.784801035874387,0.7896223169718184,-1.4608071127298647
4830.286979675293,-0.38815571843233737,-0.0090213541584024,-0.43464986030249964,2.8420136121069732,0.8848293027033701,-1.4669479184678027
4840.062856674194,-0.39347356259115734,-0.012074300853983727,-0.4358044000739967,2.863299420137678,0.9478768460132606,-1.4731025897253922
4850.077390670776,-0.39245258200782557,-0.009918733091357027,-0.41802001561113683,2.806255528034246,0.8490344460845006,-1.4574182984410111
4860.079050064087,-0.391345594559643,-0.013215259606908888,-0.4405795224699337,2.9028157822310146,0.8397076190525672,-1.449634098790699
4870.06688117981,-0.38924931244507754,-0.011468932578637058,-0.3931349343994967,2.744927521755357,0.7703943771571539,-1.4689719842039173
4880.068302154541,-0.3912899230132091,-0.01081093472993887,-0.4370254474440386,2.8973754556678233,0.8963834261602448,-1.454528042593598
4890.066862106323,-0.38925368938476457,-0.009554037097474433,-0.4275241681017207,2.8239321710003233,0.8910211904538415,-1.4893362025724273
4900.430202484131,-0.39560238725229613,-0.011873652559572298,-0.42987055167639043,2.862949386891747,0.8995404283441151,-1.4456409791975657
4910.07661819458,-0.38820055705304585,-0.01119924118704767,-0.42399030515802333,2.8453192958056275,0.7812135467864755,-1.4746882549296794
4920.076847076416,-0.3871429977594722,-0.011626086598101045,-0.4073810227040332,2.779822213831799,0.7469874666374721,-1.4689921681486455
4930.306434631348,-0.39131018199118917,-0.014332661045161146,-0.4180178927953886,2.799583683836004,0.8991027750184201,-1.453868569090948
4940.070867538452,-0.3945327319732587,-0.006545050508278658,-0.44293762686380833,2.9115442222064023,0.9320864702164071,-1.4594798651710872
4950.073719024658,-0.3903353155938461,-0.012357751468117949,-0.4132778703293563,2.777132321777718,0.8280504030341348,-1.465899366290828
4960.073232650757,-0.3901965728585372,-0.011439141251295578,-0.4429817339103119,2.9472102654902814,0.8594227341391003,-1.4500332631846173
4970.427989959717,-0.38829314808574017,-0.012248921989184643,-0.408530566511516,2.7302766478157894,0.750503215303636,-1.4642993603562946
4980.067729949951,-0.39229978616973565,-0.011388675136703755,-0.42991104774765226,2.899094733208829,0.9363057181457016,-1.464066144504226
4990.075349807739,-0.3924462448244358,-0.007587303018489589,-0.4310848929495547,2.869262497113237,0.8536497132639097,-1.4624122177991337
