time(ms),fx,fy,fz,tx,ty,tz
0.0021457672119140625,-0.303837186158968,0.019618437868002367,-0.42152308991052123,3.6240322906961127,0.9956054568263768,-0.39464393437877954
10.019063949584961,-0.30708174902127794,0.015435690489312393,-0.41080262339752843,3.56342154915567,1.0262040325334634,-0.4040061958638652
20.148277282714844,-0.3091823768116756,0.02250066203108982,-0.44047888724737166,3.698566865230246,1.0830700395552424,-0.40568095992825365
30.086040496826172,-0.31026020446238584,0.01849659696235321,-0.41911139614294957,3.629834271280104,1.0424082323458013,-0.400312102537381
40.07387161254883,-0.3070387268305396,0.01913944747334862,-0.41557668907516965,3.619737093484091,0.9995568454259796,-0.3903789568089116
50.073862075805664,-0.31022661145028757,0.023203001405203396,-0.4404997308594386,3.748547883596565,1.054985721818137,-0.41022132516407506
60.07790565490723,-0.30279733471281395,0.01813110061378502,-0.38711141813963,3.495542864874619,0.960275753219979,-0.40623610594707676
70.08242607116699,-0.3123495397483908,0.019114977254112448,-0.47131035366243595,3.8163931186792506,1.1424861610621964,-0.3993686719461475
80.0790786743164,-0.3050305149952488,0.018111876469402342,-0.3953846845250326,3.490426610052243,0.947953548754891,-0.406291671196404
90.07430076599121,-0.31019107382641414,0.02064693115566842,-0.4452405005316032,3.7605680886024024,1.0855163924323645,-0.40653026443151685
100.42500495910645,-0.30497366792787034,0.023034664304838946,-0.39897901489050674,3.5539615381018304,0.9363781252336677,-0.40175266906465656
110.07308959960938,-0.310138178510296,0.01933260494812421,-0.4428610585567541,3.745952861710201,1.1498340267214906,-0.4118167040480821
120.4230785369873,-0.3091385573926371,0.02040604315360543,-0.41796475362120217,3.6804053667703345,1.0047983088608745,-0.3999693600224145
130.42473793029785,-0.3103989597032367,0.018270490510890528,-0.4321098753063146,3.578890538776845,1.082559366370025,-0.4140414774799323
140.0735378265381,-0.30812512077749454,0.01871503751659256,-0.40847703966552873,3.6478809094634705,0.9483067490293239,-0.4123969330576976
150.07710456848145,-0.3060512235830429,0.020696449975456558,-0.43335014994712473,3.620167109050032,1.0406538298638066,-0.4043516770925216
160.06159782409668,-0.3058333457781919,0.021128022481371956,-0.3990197298087529,3.6480384042589535,1.009870541049155,-0.4037240395733242
170.06659507751465,-0.3104339095666379,0.018135930879368236,-0.4427671106727568,3.573980928656251,1.0950826662026498,-0.40085543081904906
180.07206916809082,-0.3112536040729181,0.0177759338428783,-0.4238724466777927,3.692444470776463,1.10194822749867,-0.4242076389717989
190.07134437561035,-0.3049930358859856,0.017983763444761998,-0.4096411274183145,3.5715826251977365,0.9485118274119759,-0.4071478068519645
200.4244327545166,-0.3060546469751553,0.017067229147905517,-0.4274075226590605,3.590197727802117,1.03639131275932,-0.4043260782481233
210.08014678955078,-0.3069748922915893,0.021628256665435396,-0.4132391406658968,3.673742914234107,1.0064499626837153,-0.40857537699475505
220.42512893676758,-0.3082861390094251,0.017121253089185846,-0.4273716630174815,3.550905596328949,1.0273619988234581,-0.4040364717809578
230.4239273071289,-0.30796645984022397,0.021927604949790108,-0.4393497462316016,3.786814460584429,1.0675415266807091,-0.40168355718699783
240.0832176208496,-0.3061833352547259,0.01734708754511085,-0.4119643851195091,3.502461834213978,0.9486265563803301,-0.40226705952222214
250.0765323638916,-0.30687059607161754,0.021376113675605653,-0.43105881889456177,3.7750685052402266,1.0639912595923418,-0.4103835064114082
260.0829601287842,-0.30617135494552533,0.016109426562571014,-0.40839138920862383,3.468110826827149,0.9712643322998883,-0.39338541727863086
270.0777053833008,-0.3110548534944996,0.021097390156333485,-0.45001607625343637,3.844021728214452,1.190048226193834,-0.39967991300090905
280.4217338562012,-0.3072534719971289,0.01577858619716789,-0.39773021772284883,3.4762627644444266,0.8855302977317226,-0.3878455372222572
290.0810241699219,-0.30377567765082275,0.020525386666944166,-0.4393220151922986,3.6866080811937607,1.0878968973782803,-0.4054374582679203
300.05860328674316,-0.3060213947390756,0.016408377795968404,-0.39422947570704053,3.5583483477878874,0.9002707832586113,-0.3930092943457795
310.0740909576416,-0.30915045954220044,0.021048818631349057,-0.451146220838949,3.7188174082223124,1.152202022999058,-0.4114862576072508
320.42407989501953,-0.30910381387067826,0.02166861830212111,-0.4120435983486885,3.680324424649979,1.023217027560653,-0.4089789808560701
330.08766174316406,-0.30717542178335205,0.018832996041158918,-0.43331623804370645,3.5760459156520548,1.0590984037715938,-0.40448213177989456
340.0752544403076,-0.3059338278078649,0.019651405603002426,-0.4251004690138645,3.697104201410322,0.9970064808299651,-0.40890178101914676
350.42810440063477,-0.3038767255562696,0.01982689587336972,-0.40252557721206755,3.535623720879396,0.9756567538479016,-0.3934139986947874
360.02039909362793,-0.3070004723776747,0.020019034146475313,-0.4393089000051648,3.7029946055551486,1.0733040960492042,-0.4011781738460311
370.07832527160645,-0.30922717478937267,0.022735866264330617,-0.4203032086822674,3.6230581246091194,1.0553583213145403,-0.4178893733406345
380.0780773162842,-0.31023917951996044,0.019609612081761946,-0.4286008890119672,3.65204030586893,1.0582589411298555,-0.3827737427279455
390.0737762451172,-0.30604869121079536,0.018643068122595273,-0.40845298525556284,3.5753383614669425,0.9473018099299453,-0.39819555519206434
400.4232883453369,-0.30701617933838027,0.018784224427503073,-0.4345529360995151,3.6748202604214515,1.0997522011814074,-0.41928047419667525
410.07208824157715,-0.30382890436380294,0.017383641244268798,-0.4061042944084009,3.587098219847422,0.9524884803327295,-0.38933048279157406
420.424222946167,-0.3093306300116474,0.01976681924977929,-0.4594031612393188,3.6598994105892153,1.1159882401035832,-0.4152461238316897
430.07683753967285,-0.30703953031161074,0.021859887440060257,-0.3978062639235261,3.605695004959212,0.9525347602171492,-0.40711669931633143
440.0749206542969,-0.3135401611348367,0.017438640617822226,-0.4570302784212294,3.710834473625509,1.126129021598036,-0.4118083034502684
450.0765800476074,-0.3027930077952948,0.019538643131121712,-0.38002136985983126,3.5217908938409557,0.9024291585154088,-0.4144530442450923
460.0696563720703,-0.31022186247072714,0.015552995599311172,-0.45469362728459234,3.7319638936011956,1.1245243948657473,-0.3984327853231032
470.0655937194824,-0.30702690284061357,0.02034377493378597,-0.41321124705454826,3.626635441184753,1.0297739833448805,-0.4130956833412678
480.07845878601074,-0.3102518757714384,0.017048276999060547,-0.43808958777907026,3.684468967597972,1.0626534167131363,-0.3924216808136349
490.0691509246826,-0.30607387737230896,0.01979318093223738,-0.41200370879621184,3.5700745443757884,0.9706518233600807,-0.4073524350351057
500.06890296936035,-0.30592516459367,0.01836122134421784,-0.4298403695508627,3.703539503282333,1.0048971714228634,-0.4002702402356597
510.0736618041992,-0.303945268431769,0.019811363990251633,-0.40370441837798426,3.52899612128862,0.9723230233450094,-0.4202321490664479
520.4229354858398,-0.311364456323264,0.01751716604219364,-0.44042631394895904,3.6422555696597074,1.1422571470722274,-0.41109243620613634
530.0631523132324,-0.3070565534806079,0.017891009840022166,-0.4143850109704279,3.611875637721917,1.0147758305049999,-0.4085476991040054
540.0612354278564,-0.30712417719877305,0.020018962239609032,-0.442837582528104,3.657489795867995,1.0401926473609082,-0.4004242147210796
550.076961517334,-0.3048594610658929,0.020526999881857404,-0.40137612719614957,3.6117426256512126,0.9622566404460806,-0.3983424171504928
560.4290962219238,-0.30820966762032115,0.022077424468892787,-0.42385077144718525,3.600048199392669,1.0380219447661208,-0.41302519585399317
570.0769424438477,-0.30908274828524157,0.017793926191377606,-0.42270756169670676,3.6988277277092094,1.069468693224923,-0.41022412015270376
580.4247856140137,-0.3083435269414935,0.016053614328789982,-0.41905487734604757,3.5028349151737466,0.973851406914335,-0.3939905479486802
590.0797843933105,-0.30799316542508604,0.019491934931889773,-0.43102113657024166,3.724336879234202,1.0938900282975625,-0.4106090313551696
600.4266738891602,-0.3049943896109031,0.018068651063607104,-0.40371196234617346,3.557559107402673,0.9328644431083132,-0.4067518595087163
610.0754737854004,-0.30693630331547683,0.019969731047286037,-0.43456916829298314,3.702048664476366,1.1335281443474512,-0.415340562558209
620.0685501098633,-0.30814484201717024,0.016203161852354965,-0.40844523807231675,3.5934584853412694,0.9714660810819924,-0.3945564456072061
630.0759315490723,-0.3103321644772266,0.020626028142277212,-0.4475701266800424,3.688508789137566,1.067773188719189,-0.4057441848220333
640.0771141052246,-0.3070661983798469,0.019301509918033106,-0.40490542249064493,3.598348286683393,0.9646381864783649,-0.40305973267870576
650.0701904296875,-0.30715187384783565,0.016605402609596052,-0.42266078471699403,3.5859792239525694,0.9893840622496435,-0.3992672426216708
660.0658893585205,-0.30791187627594085,0.020686526827908887,-0.42866117822977107,3.7380233570414347,1.1351520514990614,-0.4066248250870703
670.0780391693115,-0.30719829129321696,0.017959537083594105,-0.4095973767797568,3.519021857338176,0.9851282825058892,-0.4073435248364571
680.4153919219971,-0.31024314377676276,0.01926847652893775,-0.4535179625263343,3.7410260595957943,1.1170017173617373,-0.4114908127509108
690.0367736816406,-0.3040307375583154,0.018872510427376622,-0.39302687401139413,3.493873015488222,0.8577443528466991,-0.40946646564010225
700.4237174987793,-0.30700589665650113,0.016375109927961238,-0.4321805660086462,3.6727041882867297,1.0841869532773578,-0.41478106461078273
710.0718021392822,-0.3058451103667936,0.019828646649244545,-0.40494053492609167,3.64807157520901,1.0141892017842848,-0.3950096026785497
720.4270362854004,-0.3071645513410007,0.016429499656343965,-0.43450576519523054,3.587792805785518,1.0209017014994486,-0.38639852721448514
730.4234504699707,-0.3081092262336595,0.01825568082282079,-0.43098298216171244,3.657541421871604,1.0833644950463037,-0.4145289966542048
740.0755882263184,-0.30716796535395663,0.019290980251700236,-0.4119994225217041,3.5732691007021735,0.9201784680594478,-0.38892169225672985
750.0696182250977,-0.30807291326618436,0.019592579533608292,-0.42150269337157953,3.6439185284924824,1.078701609889485,-0.40963139810666727
760.075569152832,-0.3027789296814299,0.01790890839695676,-0.40847793068539356,3.584320266893222,0.972909386322958,-0.407405292834598
770.0662612915039,-0.3091661883876044,0.019786349779940062,-0.45826266206506083,3.738842407512304,1.129869254121593,-0.40260382751451573
780.0760269165039,-0.30611630242341853,0.01988949549005119,-0.4060639327717152,3.5363152710971812,0.9438922645789024,-0.406651330583261
790.0807857513428,-0.31021860477704577,0.018207793976258834,-0.4428499786465749,3.7254953957680432,1.0817473596456668,-0.40191583824980476
800.4262447357178,-0.30486476028929976,0.02535243207311177,-0.4108842095532953,3.6628421490698617,0.9667897712258762,-0.40743979875125946
810.4293346405029,-0.3103469585333689,0.01594954008218809,-0.42500465780411467,3.582807740351106,1.047313534307188,-0.3958227880502382
820.0795650482178,-0.3081204906005827,0.020785111141588996,-0.4286156643097966,3.652565444839813,1.0566827895166164,-0.4049088990313106
830.0764560699463,-0.3104107930723192,0.015967957619114157,-0.42736681711997077,3.5700512496774968,1.0174320951567428,-0.39536181188878217
840.0723934173584,-0.307950896693251,0.022215651350595726,-0.4144470290794081,3.7303515822133706,1.0428347432336071,-0.41402344136203606
850.0776290893555,-0.30618751523212706,0.015095599149242104,-0.3989022715058651,3.4397758761444064,0.8982982309762284,-0.3697817258033898
860.0747585296631,-0.3088929235373991,0.018574609659504127,-0.4428994286858822,3.807710980472981,1.2334273563636524,-0.4223576910228214
870.0656890869141,-0.303041783667951,0.020504911968365194,-0.41199119387509237,3.501395005187424,0.8493852390421058,-0.39596991887781874
880.0697326660156,-0.3111555199809165,0.01845824246515258,-0.4570751608113347,3.7641513359313117,1.2371982774871868,-0.3954879834280327
890.0790214538574,-0.308225796643068,0.01786295365662809,-0.384730797517451,3.5383249804711223,0.8521641392911091,-0.401092445229489
900.0821113586426,-0.30816672358922004,0.018098301703601456,-0.4463854079094031,3.66654257020058,1.0810866449679772,-0.40132649582648366
910.0751876831055,-0.30373329949549555,0.022338843444473597,-0.3990286962823404,3.6355509546887514,0.9856088704835289,-0.41200844527023034
920.4258918762207,-0.3092393801983286,0.01770165717638884,-0.42620678116278105,3.6005349994982785,1.0825160440462798,-0.40964035520109826
930.0675392150879,-0.3089401288319241,0.022498817463650265,-0.4393657689572417,3.8300417328318046,1.1191235420457621,-0.40720454449585086
940.0730133056641,-0.30405094964051316,0.019022530035150698,-0.3847194800019744,3.4599054155124382,0.8154433348286707,-0.39508040280437345
950.0668048858643,-0.3090017936593438,0.018641361116117323,-0.44644661315815576,3.7952105626557633,1.1657823131230969,-0.4214235645548084
960.0715637207031,-0.30608727080775133,0.021399799172083643,-0.3942314578354417,3.5489735526233694,0.8551337615605908,-0.3873933086874043
970.0732231140137,-0.31025715311014684,0.016697893597954674,-0.4475367618940851,3.639367449133584,1.2046411682102574,-0.40747543641946865
980.0734519958496,-0.30588656623840105,0.02338241841574708,-0.42274596308968976,3.7127939669956977,0.9928175338288471,-0.3951416580752939
990.0736808776855,-0.30721508936245884,0.017755302825024775,-0.42382093635044693,3.5408272925221436,1.020562176035152,-0.40816974098287095
1000.4243850708008,-0.30689763617972715,0.018971329219968542,-0.42510778162952734,3.726293355642392,1.059997152061393,-0.40560756802885806
1010.0300312042236,-0.30505905889477947,0.021500925237167755,-0.41790994183077823,3.522899466366582,0.9918409447930986,-0.39362224097955584
1020.0760364532471,-0.31119810135130066,0.021185566732714874,-0.44048221997430487,3.7371444550467303,1.1753209777831133,-0.4119427161416726
1030.0793647766113,-0.3061751628830531,0.018529777291566633,-0.4202894119430966,3.5638489229258714,0.9337539998247699,-0.4115324749639607
1040.0807857513428,-0.3070076130421356,0.017711796044535367,-0.42030970531131717,3.6191931805683364,1.0873521684759124,-0.4096290845814041
1050.0786304473877,-0.30494698110132124,0.017881427468492972,-0.4167628397303637,3.5990525018888007,0.9715802066579471,-0.3943154919510478
1060.426950454712,-0.30691883932612546,0.02497719390735437,-0.42984376167912014,3.7116719603916173,1.1141334368779388,-0.4101512316013723
1070.068597793579,-0.30605882695255643,0.017133946214278335,-0.4262307386547967,3.603258062502417,1.005771768384747,-0.40401872016414125
1080.336332321167,-0.31016851695509834,0.02195697734147579,-0.4357430916545229,3.714101308858055,1.092530572715459,-0.3880671260466857
1090.0697708129883,-0.30934825969942975,0.01685922446843433,-0.41078474672529225,3.5515966775889103,0.9372637645891044,-0.3983007580638285
1100.4178524017334,-0.3058626650213242,0.0206241022888149,-0.43576604557679605,3.7061543589582504,1.0889514928584088,-0.3922611471714553
1110.4240417480469,-0.3080903678763792,0.018568591367434415,-0.409639773693397,3.608491578665395,1.0246239229161933,-0.3996340489257596
1120.4252243041992,-0.310286706832191,0.01691264189092945,-0.4439968306361501,3.658925432085352,1.101551210931584,-0.392797681817452
1130.4254531860352,-0.3091406176806755,0.02029736686756115,-0.42508440251882745,3.7076497747925763,1.0281049874617227,-0.41403809160444577
1140.0761604309082,-0.3093057846261523,0.013062429378578594,-0.4131467747329578,3.5490971980431434,0.9866373106226416,-0.3993057690700734
1150.075912475586,-0.3091303162404834,0.02259188995971016,-0.43695364374847234,3.7506649155316327,1.0593716842537264,-0.4192000041605286
1160.412311553955,-0.30727768585275483,0.013202951027231749,-0.39888751809273415,3.4349007250446926,0.9392054531939229,-0.3974235411909038
1170.0754165649414,-0.31110443171561203,0.02227521837335115,-0.45594334048319907,3.8523476085412782,1.183174780153606,-0.40858590353470237
1180.4392337799072,-0.3030659568805655,0.013508633368590737,-0.37874080861558723,3.3528393461777015,0.8053700426178071,-0.38100382712114583
1190.0749206542969,-0.30887401828433647,0.02218122359357148,-0.4559778182623912,3.8914792345097364,1.2150606232018144,-0.4226212171822229
1200.4270553588867,-0.2996998464031458,0.020496780239703718,-0.36223300238185624,3.430889291085354,0.7452134460865233,-0.3887373199251833
1210.397481918335,-0.3101990711204995,0.018651600028599554,-0.4855070763400734,3.7653044156807844,1.2907211623440593,-0.4009199531628073
1220.0798988342285,-0.30492474624771093,0.02335528764245828,-0.37885060102125173,3.5641495655338193,0.8734487718008698,-0.414201088838392
1230.079174041748,-0.31040628169805606,0.01785008545394812,-0.46411615297639797,3.6298666731393303,1.1421307441804505,-0.3887542618081577
1240.0858402252197,-0.30379225687308026,0.02119688112180593,-0.39427104412852565,3.601022224792315,0.9551798824310028,-0.41586974081914596
1250.0691413879395,-0.307162431651638,0.018950354299711026,-0.4309660903009058,3.608729246490402,1.0091424996599219,-0.404067529294423
1260.089635848999,-0.3080345306315143,0.024643586690791922,-0.4120358667973698,3.646241498566212,1.0626538575334903,-0.4043634510602798
1270.0707912445068,-0.31025961670191354,0.018313193810308808,-0.4345340120881396,3.6781941962417544,1.0624738808999439,-0.40117043916832695
1280.4319858551025,-0.30281658699466607,0.017755102736353362,-0.4191375546103507,3.585860583875966,0.9968350204704955,-0.4078698830976813
1290.0848388671875,-0.3102738136184271,0.019754982754311274,-0.4226881624747366,3.67079571127498,1.0083162616288097,-0.4090986745245838
1300.4403114318848,-0.30608037087497325,0.017396512573334248,-0.40012177444147456,3.507067600307881,0.9966042400727241,-0.4162214404285434
1310.0788593292236,-0.30588250506364856,0.022938734292440487,-0.4523941770089099,3.7893614830743534,1.0824567896620734,-0.4107720317155013
1320.4307556152344,-0.30720056730185424,0.018069692149975534,-0.4024838868615483,3.504837809027318,0.9617697434225206,-0.40683035992200384
1330.073595046997,-0.3113076874155227,0.017453322124086835,-0.44994510730279613,3.7227216915717256,1.1347081860453962,-0.4117748855157577
1340.080976486206,-0.30834450862653756,0.016173930148016366,-0.4143151894032628,3.495742866007234,0.9316044534805984,-0.37987104073989353
1350.0680923461914,-0.30795323210321257,0.019535585526111756,-0.4274750025634931,3.7369806105623162,1.0933229332333936,-0.4106576060065395
1360.0859642028809,-0.30832077310789174,0.014948418299493638,-0.4095736068708706,3.493914708965127,0.9577105382928836,-0.39818342794274575
1370.0823783874512,-0.3100534065677141,0.024061369300004305,-0.4499990906010651,3.796540239416067,1.229894365681507,-0.42186038626196276
1380.0804615020752,-0.30622030476315415,0.015190434926718815,-0.3953581946607694,3.458852342582044,0.8637778610345944,-0.3963410927424382
1390.0821208953857,-0.3080533014500008,0.020318466843238268,-0.4570898141801299,3.74866041471592,1.1724604444825606,-0.42102239614779063
1400.4297256469727,-0.3037761747461158,0.020487388577689482,-0.3622663609150426,3.549549848640037,0.838395712667393,-0.4046602013182917
1410.4125499725342,-0.3124032666830495,0.018978160372265834,-0.4712723180565554,3.7502716006049677,1.2116724998441541,-0.4131795298737444
1420.4301834106445,-0.30806754526229674,0.021162800393571147,-0.3989862587256888,3.6151961998891218,1.0122435614282062,-0.41708507003012524
1430.4313659667969,-0.309426331797905,0.015029372925391355,-0.44749562804018317,3.54938429402276,1.0625771266543906,-0.3915483125212493
1440.0794506072998,-0.30591982472725177,0.021152355139646525,-0.3990046668834584,3.6216272530032505,0.9875943316116034,-0.41666929202370917
1450.0837326049805,-0.30715046072159385,0.016614487885832203,-0.4202845941830554,3.5724372977048877,0.9968701422850987,-0.3992229479920377
1460.073471069336,-0.3079623674016166,0.023176849190573192,-0.42865189911763446,3.713632685557689,1.1127804810512703,-0.3969340054979897
1470.0725078582764,-0.30708858017357527,0.02025311288093944,-0.4274368887979752,3.6486969242140286,0.9968765888919805,-0.39958582442956464
1480.069875717163,-0.3060821685466304,0.018233524128847784,-0.4321501118875807,3.598315306442851,1.0445440913742943,-0.4134100351495927
1490.0789260864258,-0.3059605927940513,0.019818010685804976,-0.41324110716237045,3.668944431485783,0.965830861900078,-0.4215604095741244
1500.4334449768066,-0.3060484067097157,0.01961641509658985,-0.4214892686722822,3.5911423151559823,1.0207158566403358,-0.4083001487744616
1510.4303359985352,-0.305964910332414,0.019508673599807295,-0.4274396556491345,3.6446373439181325,1.0585875898990296,-0.40930641033490284
1520.0676918029785,-0.3102691928206718,0.020726850947968698,-0.4357182869120392,3.673539305252636,1.0817821688217208,-0.40564770143940293
1530.0769805908203,-0.308291603931263,0.018465036100823996,-0.41906885854196224,3.5243179105901254,1.0078438991713963,-0.3988558634396402
1540.0846004486084,-0.30915423621587323,0.01525407250338322,-0.4333641655332798,3.698668575929417,1.0477766301580067,-0.4058333680945427
1550.0686168670654,-0.29971644751010174,0.02239283299551352,-0.3894789329538318,3.4428742023253864,0.911377899244403,-0.4090537514914671
1560.4305267333984,-0.3134519439154439,0.013598054246397432,-0.45701918600550817,3.70130795809951,1.217009211739411,-0.41326431744825387
1570.0712203979492,-0.3039392845299397,0.027378067254742563,-0.3942392737991686,3.526711946532445,0.9222784955838313,-0.40528335560069534
1580.0838470458984,-0.31455963167397644,0.015452444789157364,-0.46770016626975264,3.747404895819457,1.1673540190161678,-0.39958308571587475
1590.0793075561523,-0.29954464637461353,0.022710061078489885,-0.3717599243379693,3.5259719279603967,0.8514424600963499,-0.4087162300402702
1600.4276275634766,-0.3072976259394149,0.015207842641131347,-0.43445803154155765,3.5013743272737883,0.9991448440932363,-0.3765628121634498
1610.4280948638916,-0.30891334196103926,0.025056119509068588,-0.4275166178807605,3.816754525715597,1.1333946101703698,-0.42482355879817696
1620.4280853271484,-0.3084209706364851,0.014823190928661273,-0.4249691920871075,3.489790534418606,0.9328663189396077,-0.38458069975003967
1630.0745010375977,-0.3100314374568705,0.01815402014581777,-0.43576965967842335,3.776825227500255,1.171339816614482,-0.41685433340175077
1640.0816440582275,-0.30403843159300814,0.021301946432608382,-0.4001468480531104,3.510173085911634,0.8355327720500124,-0.3867531906373278
1650.071620941162,-0.30803332384671483,0.015683640996199028,-0.43692245805320196,3.696068345484825,1.121264300120319,-0.41116524034505963
1660.078763961792,-0.30382092895441604,0.023488799934841147,-0.4144377937366684,3.6521880650999945,0.9377826507890057,-0.39367532387880344
1670.0687408447266,-0.3104000007896051,0.015600585439251512,-0.4475116507658233,3.5926115662701354,1.1141591420194437,-0.3970692998301023
1680.4265975952148,-0.30582418234231845,0.023288601839940377,-0.41919294478209046,3.718458483536046,1.072155071221713,-0.4230719012826434
1690.079689025879,-0.30627432870443444,0.01477277483623729,-0.4249862183824902,3.4960610820280253,0.9310736182353513,-0.3979106289239786
1700.4284858703613,-0.30584358156428865,0.021627365645570527,-0.44762519483407665,3.7349708761772917,1.1544833746291345,-0.40235356660875143
1710.0799083709717,-0.30291265144164065,0.019472929634491445,-0.3894768288963965,3.483859674845529,0.8735627598158628,-0.4004443955394225
1720.4267978668213,-0.31345247540097737,0.018362387486005893,-0.47126594960931073,3.7532101090860452,1.2295304325256842,-0.4090848621534856
1730.2796840667725,-0.30504298614697145,0.019504205994940994,-0.39065747711312687,3.503983111509083,0.8828437446573455,-0.4008922940303706
1740.077257156372,-0.3123917959746839,0.015698757070046847,-0.4451821184089487,3.6912442044907783,1.1220179809969621,-0.39809099010294047
1750.4262924194336,-0.30370555282426503,0.024748170538228805,-0.4037916382804055,3.677555141162745,0.9933460180322049,-0.416762236337964
1760.063648223877,-0.3081673019705359,0.019379910286984884,-0.43807129217117835,3.6201235866376154,1.095931129708216,-0.39643109825433165
1770.4260349273682,-0.3069339585263588,0.02374800230310903,-0.4286496950158635,3.6973605775261063,1.117950087642046,-0.4146693369724995
1780.0836563110352,-0.3104404343331571,0.0171206246857022,-0.435673692149399,3.598481717689753,1.014355753718534,-0.4045122107347011
1790.0748252868652,-0.3037989879810419,0.015917094453564998,-0.41558592129152383,3.6070277268189836,1.0367658381091855,-0.40876427007972127
1800.4279136657715,-0.3091226440904891,0.020323816088812948,-0.42984535613572045,3.7480672268384447,0.9901052881185066,-0.4004860171094609
1810.0895881652832,-0.30608844632869586,0.015996066951061587,-0.4107798789430832,3.5077428933211134,1.0317675199266776,-0.407975873818589
1820.1298713684082,-0.31227035778306633,0.01941441620364639,-0.4416730570813496,3.7657552373421663,1.143692702003561,-0.41203016739662013
1830.0707340240479,-0.3050239339537908,0.016685356792136737,-0.4191166390914175,3.5723056643701847,0.9303700439389689,-0.38474413155156906
1840.0840759277344,-0.30490302412132114,0.017793122710306482,-0.4155764327115594,3.598635923527699,1.032200339860404,-0.40853434943795974
1850.0351905822754,-0.3059504789369887,0.01860322546590104,-0.4191718666911118,3.6824717074910547,0.9242654542505558,-0.3854596017447438
1860.0704669952393,-0.3038761659332668,0.020675384390019817,-0.4214896438385411,3.56529068685879,1.0875747139743013,-0.41766024680078767
1870.0649738311768,-0.3101350583775762,0.017095819943218512,-0.4333865098103823,3.7494840390887614,1.0765476553417717,-0.4065189187785708
1880.0699710845947,-0.30828450078342795,0.020894981706890758,-0.42264028500733114,3.5529884725025296,1.0080409021003254,-0.40338739351006475
1890.0837898254395,-0.3080746609156737,0.019614379819635364,-0.4262564563018437,3.6711628864925565,1.0408729207062282,-0.3959742801855784
1900.0895023345947,-0.3049185747627522,0.019319799273154057,-0.3978014180260154,3.5772139207658604,0.9623953362856071,-0.41606663745096845
1910.071849822998,-0.3071081826106023,0.01755114047332171,-0.43451581339819784,3.6081375373932647,1.0891075182527106,-0.40974991625423646
1920.0689792633057,-0.3080150063541245,0.019662679349082102,-0.42271751298172383,3.6969797118664656,1.0401348154821002,-0.39612789826305234
1930.4358959197998,-0.30506296375025743,0.02144278384619611,-0.42266094103626856,3.5498228133572356,0.9997253138345346,-0.40745653741917703
1940.0792121887207,-0.3080711093417562,0.01731797464342088,-0.4215267477815454,3.688557051150387,0.975522778850466,-0.3909552246881103
1950.0792026519775,-0.3039484479658131,0.022143197366847365,-0.4096236040276388,3.51853342525934,1.0110735960706976,-0.4115276446983775
1960.0865840911865,-0.3058597606092033,0.01822810610279229,-0.4357797954201844,3.7372510053906414,1.05439410963895,-0.40126652862638545
1970.081090927124,-0.3082641698985815,0.020932907889279154,-0.4143369678045914,3.5318251843928223,1.0340193115819392,-0.41689297240003104
1980.0832271575928,-0.30805230100664377,0.018257075190749667,-0.439318832531869,3.738007518772539,1.0452478501274207,-0.4013485212122661
1990.079641342163,-0.3072627823731204,0.014461952717131493,-0.397709164642954,3.442280614270569,0.931420687667837,-0.392766070933755
2000.4360675811768,-0.3113296283888969,0.02213975834280754,-0.47249380624695153,3.795626625163259,1.1441075264624025,-0.40783555851137826
2010.0815296173096,-0.3060830877039647,0.016468082379685434,-0.3811549440902272,3.477079623319067,0.9303993381710173,-0.4194666066832531
2020.0908184051514,-0.30924335696067284,0.018242046655695583,-0.48196547871867185,3.774158001740982,1.1700851824851128,-0.42177816544994134
2030.0819873809814,-0.30816509161599387,0.018983115693268698,-0.38473468674100153,3.5456093523674843,0.9204218165268919,-0.41088826760166225
2040.0893688201904,-0.30818171460764826,0.0181552613208576,-0.43568913024095235,3.5990412406482633,1.103490820490051,-0.40092705631064235
2050.4391193389893,-0.3080018505239794,0.0207544600582376,-0.43815364116500494,3.76610092178588,1.037218463694996,-0.39225584169527755
2060.4403018951416,-0.30510338478826743,0.016688802068947548,-0.403653573970748,3.45755098149513,1.002466412956569,-0.42489288327004904
2070.4381465911865,-0.3111784207546363,0.016080876410269392,-0.4618416418777753,3.8223796060293647,1.164931354761909,-0.40428677020334797
2080.4355144500732,-0.30188792232210543,0.021243357968511546,-0.39184582561732095,3.4688863861494568,0.882797880582196,-0.413673795787906
2090.1553630828857,-0.31127950930309456,0.017295802317520422,-0.45942827862035157,3.7373395352485828,1.1733698850107386,-0.39907196233114695
2100.087881088257,-0.3018083401794382,0.020168290916189636,-0.38357799288990135,3.51286685781011,0.850946746665706,-0.41810888311871164
2110.0776195526123,-0.31135167253299223,0.016066291821955025,-0.4546483540963007,3.663195980874164,1.1889286863079063,-0.4032084954795125
2120.076894760132,-0.3090892542934478,0.021671278856173735,-0.41799503579106567,3.7339627669230255,0.9928766225146224,-0.4090996905998683
2130.077838897705,-0.30409930231851323,0.02064860064552048,-0.4309204607046682,3.481325295458529,1.0252007816822497,-0.40284117019543225
2140.0928497314453,-0.30688983584792767,0.020307612032814348,-0.42038261262096166,3.7462520130322696,1.0290270617136688,-0.4141540117256721
2150.434732437134,-0.301799267408744,0.02581358331215524,-0.4179659822907001,3.5752467239818224,0.9488900794133462,-0.3973409827292492
2160.0875854492188,-0.30802497327106904,0.01714824942789855,-0.4203314180585505,3.674759102068481,1.0819078307601362,-0.4191099298681543
2170.4392433166504,-0.3060950617603943,0.02078367925703423,-0.42978656445656666,3.599949762019107,1.0064081910471734,-0.40369486727031
2180.0920963287354,-0.30814900323625843,0.01827726851463449,-0.43334617318478047,3.644897665532406,1.0533639062184204,-0.4006174972512748
2190.08731842041,-0.30708245558439884,0.018127395846978468,-0.40015461086828397,3.5769448796624532,0.9567755677007881,-0.40732125559260635
2200.437068939209,-0.3060688845346802,0.02080047732627608,-0.4262233103628707,3.5797496069819954,1.0175181614229178,-0.39017790208438635
2210.437536239624,-0.3079575590207318,0.020824291004559205,-0.4227289430470781,3.7174849489789215,1.085484103123016,-0.4057335801224486
2220.4368114471436,-0.30500563521951335,0.02009824424926919,-0.42739775270440183,3.549712645785312,1.0416884289823363,-0.38576472758948543
2230.0896644592285,-0.30696275566311415,0.02026681270215994,-0.420343920474128,3.6738888445296594,1.041217157633459,-0.40027334161006656
2240.436792373657,-0.30393199379897523,0.018583863760556776,-0.40250522444252274,3.501737113046136,0.9760723849141995,-0.3977441645285231
2250.0782012939453,-0.30690127841882386,0.022744144933110142,-0.4310706428844878,3.7894754054352515,0.9841321660663656,-0.3914121084109589
2260.0808143615723,-0.3039783612221887,0.016237517702512916,-0.38586406848845434,3.3985209936073684,0.9944305924228042,-0.40612435329770963
2270.089864730835,-0.3090324572482372,0.022205803236299834,-0.46067543756201235,3.81349934564816,1.1557434861858833,-0.39437804467194687
2280.074119567871,-0.3061349544392564,0.016130363966202627,-0.4107857315367219,3.514609373774468,0.9519820371470814,-0.39354472850408345
2290.0736331939697,-0.3070459862976492,0.018962469043487726,-0.42507353520286156,3.6668128493526413,1.0496363074186317,-0.4318883271248975
2300.075054168701,-0.30813583490057134,0.018676545458430328,-0.4060799586237408,3.5948846642425165,0.9789240893021263,-0.39888216884715944
2310.0788593292236,-0.30699888104745987,0.02012101684118389,-0.4238773613557842,3.641253309872694,1.0990033662022753,-0.4142556849082171
2320.072650909424,-0.3102894736833503,0.019684692229322533,-0.428607748301734,3.6651962079209115,1.0127323217775186,-0.39573894151776146
2330.0790786743164,-0.3071435045138769,0.020077400637202297,-0.43214746383907005,3.6030488260270626,1.0625449624004617,-0.4135803418728163
2340.088367462158,-0.3070823680456051,0.01681143453982258,-0.41202924198651486,3.637066319988893,0.9421561577048,-0.41237816536559657
2350.0683307647705,-0.3081036831521844,0.022087550831497365,-0.4215006049460717,3.6327009510545314,1.056159029281735,-0.40004562194369064
2360.074996948242,-0.3049514049367906,0.019009846289214694,-0.4167550862943466,3.5864883839672093,1.0288448590936528,-0.41725668045609854
2370.079517364502,-0.3102210371049576,0.018252710756604566,-0.43691943171204695,3.7113113724682694,1.0889565044543505,-0.41526559808691166
2380.43475151062,-0.30617049206312985,0.018497412948966303,-0.4179056805673543,3.537086131462096,0.9641484694550924,-0.4116783208471046
2390.4223442077637,-0.30909439407119466,0.016682496149412685,-0.41201765560188613,3.6437300105737753,1.0574647454236379,-0.4006291993121668
2400.082588195801,-0.30179227055801566,0.024666831366915713,-0.4072818850201213,3.533161595387473,0.9595716505644486,-0.4015968124951712
2410.0656509399414,-0.30594361964722194,0.019398624830532566,-0.43574843152094106,3.678765449398626,1.0780320788047115,-0.4099467659902766
2420.0832843780518,-0.30495480957059007,0.02027328432012582,-0.4131933516239991,3.567153252899608,1.0287171837629814,-0.4124498721432126
2430.4325580596924,-0.31034409476425934,0.018352229859546428,-0.4357046558712995,3.652104081006556,1.0250522971297515,-0.4004872020095619
2440.070629119873,-0.30379919432248426,0.019741357966342542,-0.4084858935892386,3.608789541960977,1.002022431826641,-0.4078807566664181
2450.0672817230225,-0.3060666773065237,0.022194391929258556,-0.42269754788397984,3.626310525319855,0.9484424466651649,-0.3984612823268515
2460.432529449463,-0.30601354438510825,0.01837068803948386,-0.41079350998382286,3.5291781175671932,1.088497391618647,-0.41313637324843006
2470.073938369751,-0.3069996094952792,0.020088815070629047,-0.436937861754515,3.6962236174202237,1.0464794521748793,-0.3872931017796545
2480.0686836242676,-0.31026764213346836,0.015908515651778355,-0.4297782607767032,3.649363103813556,1.0545657231913086,-0.39652169152669736
2490.074634552002,-0.3027516550944085,0.02536556289217296,-0.4073215619783845,3.6161641976175414,0.9423093474674618,-0.3930968550242192
2500.067710876465,-0.31029507616614976,0.013440643863323193,-0.43451015151407407,3.6418558300108583,1.0283903107807657,-0.3784845825663065
2510.0762844085693,-0.30159975711865117,0.02577757673045816,-0.41327897394343455,3.672962368326942,1.0193193909067928,-0.4258893123481219
2520.55287361145,-0.3104273941792752,0.013726523678983716,-0.4178850776869702,3.5604093330102624,0.9443167339369829,-0.3899589831931669
2530.076742172241,-0.3069333113645622,0.023658572046145857,-0.43576695535497384,3.718155058445011,1.1298544319279813,-0.4150874316305642
2540.074348449707,-0.30621062234728924,0.01616445407359387,-0.42029016227561444,3.5687598867713817,0.8766821078128824,-0.4065820623863277
2550.079345703125,-0.30582547666591164,0.02077121435808257,-0.41679453190008353,3.670117154315294,1.1140318074647904,-0.41894279955258934
2560.077905654907,-0.3060492914768096,0.019707996306770656,-0.4238719933518965,3.611615685021131,0.9560625235827542,-0.3807579587869961
2570.079803466797,-0.3090977893258376,0.018666097078120215,-0.4392858585440979,3.69532974629179,1.1776414092318241,-0.4206703932790006
2580.428123474121,-0.3059888803299717,0.01856758467130639,-0.41559181765455944,3.635652124523232,0.9586931237360032,-0.3989287801284412
2590.0771617889404,-0.3082291918977109,0.017150306589551478,-0.42383510825587656,3.583172348806195,1.0380262279142431,-0.41784072678239825
2600.4300117492676,-0.304847255656937,0.022675939707243725,-0.41916938121464664,3.662010346072576,1.043481445451527,-0.41774105448656734
2610.430955886841,-0.30710434653560514,0.01911335153365726,-0.4191255617956081,3.6135910604296124,0.9887888953701529,-0.4036858351426272
2620.431900024414,-0.3092133999349004,0.022262881656204627,-0.44637343697935905,3.653031526388775,1.1791869472783376,-0.42008787888159127
2630.070209503174,-0.30392302732538773,0.018644156104746068,-0.4096560684145748,3.581977716267164,0.9076263554581405,-0.39760181081797236
2640.0909423828125,-0.3102622553712678,0.019486126107647942,-0.4333395452475401,3.6590196207010317,1.1006250442410308,-0.41034377317820614
2650.4313945770264,-0.3038586925647589,0.022454544718715615,-0.39900578612946414,3.589725058958926,0.9065074283437687,-0.39715712625130867
2660.0801944732666,-0.31124341205621825,0.018473489847190997,-0.45943628841997886,3.7512821109232912,1.2074359880141796,-0.40847753050805075
2670.0799465179443,-0.30502942701309804,0.02175727946825354,-0.402519177500968,3.533777387032046,0.9370188310442163,-0.4062443470992304
2680.446147918701,-0.3135199584317954,0.01136498338745478,-0.44631923170772025,3.6258655093563292,1.1367994471848635,-0.3803180075679654
2690.0806427001953,-0.304992917083337,0.02086795723070863,-0.38119430840994134,3.5232041044951874,0.8665037940606132,-0.4095602353201266
2700.0906467437744,-0.3092920816785463,0.016073244903286453,-0.46652787488143915,3.698025659764326,1.0817681782466497,-0.3886581692237137
2710.078001022339,-0.30371630446396775,0.027339612713206212,-0.38599139991672204,3.610677362943789,1.0152201117679354,-0.43396535695761085
2720.0682163238525,-0.3104225013859821,0.019249511874550793,-0.4629570017863021,3.67034649657574,1.0543376252322885,-0.3833262563301854
2730.4341793060303,-0.30590497126978516,0.020719341370019895,-0.425076277042937,3.651761160287617,1.0885664284630538,-0.405122090384311
2740.0760650634766,-0.3039767761447449,0.021175928086246854,-0.40965433014424196,3.570807909999512,0.8623463954154823,-0.38772085071611473
2750.0834465026855,-0.3059351033731451,0.019330428983822624,-0.43691905654578805,3.6526447549869427,1.1087034836618053,-0.3966985574066806
2760.4284286499023,-0.3070307013989848,0.0240513523608919,-0.42035705129318923,3.6898175159886963,0.9844766812419053,-0.4127631484749287
2770.073652267456,-0.31350400448663607,0.01620307431356122,-0.44870832170819375,3.655962275181065,1.175022142225979,-0.40303818562990346
2780.081272125244,-0.3037471149929792,0.024725244753425062,-0.40734154270805595,3.6715218424426777,0.9824589182989403,-0.4166185914302055
2790.0874614715576,-0.3072013332662995,0.015463949887763367,-0.41195272682801404,3.497924886117498,0.98917632956571,-0.3895573051853142
2800.039768218994,-0.3036383542945267,0.025568752937988392,-0.42751356965490706,3.741094089744073,1.101336703370292,-0.414396140902775
2810.075283050537,-0.30514279913014947,0.015647612529803512,-0.40009774191620706,3.4498977523857968,0.9109561217042299,-0.4012948849427867
2820.4309940338135,-0.31334218277363435,0.022099174732752004,-0.46061496701385,3.7608619094372093,1.2738862642811286,-0.4092305454645841
2830.0867080688477,-0.30719046282394813,0.01826392822774541,-0.4013307570899077,3.5576734737103104,0.8623058805859076,-0.3925020570582168
2840.0988578796387,-0.3070298666540588,0.02245677695795602,-0.4333635715200366,3.657601201488573,1.1151897737547851,-0.4189730754696819
2850.0888347625732,-0.30713810837251987,0.020615729828470656,-0.40608957851189587,3.5930194564059588,0.9042346023669254,-0.39764610232121994
2860.445261001587,-0.3103084289585808,0.014197041568957501,-0.45464004103728073,3.638678934636111,1.1825530202391312,-0.4030282155865734
2870.079278945923,-0.3070899120137943,0.02055468089899259,-0.39777459989127567,3.551977099301811,0.9873129756757478,-0.4117320759192327
2880.077838897705,-0.31129170533289396,0.018752294652485926,-0.44876813571540297,3.7302620863023117,1.104066891406964,-0.39337170807825383
2890.075922012329,-0.3017903947267212,0.01871940507712315,-0.3918557862814945,3.4933420207973147,0.9277876807874565,-0.4102092760743937
2900.085687637329,-0.3080012033621828,0.020665029801274427,-0.4452709015041153,3.786895402704785,1.049122807980931,-0.39267393635334225
2910.0873470306396,-0.3049917384360069,0.023036949692632692,-0.38709564865121465,3.4859786670242996,0.9967842042007288,-0.4287274263383202
2920.438528060913,-0.3112795093030945,0.01980302904653326,-0.4594528895269348,3.7785888653249895,1.1503815631180292,-0.4168074063555344
2930.076837539673,-0.30710070429650843,0.01803678381629979,-0.40132659274443394,3.557161378019695,0.998968456550233,-0.42117420717445087
2940.084218978882,-0.30828561065027715,0.0170328983088315,-0.4392389158659542,3.5923340026398805,1.0128918487235699,-0.39089251877432213
2950.085401535034,-0.3070002441515339,0.019107699028689955,-0.4108396960766779,3.625288850678944,1.0484458486042312,-0.41789679850617495
2960.083484649658,-0.30923177682881503,0.0239604089333512,-0.4214900846588953,3.6241964134288356,1.0517126807103918,-0.4132662245434032
2970.4384803771973,-0.31128763165259954,0.017805128030590988,-0.42385328818750534,3.6531984284781998,1.0794855791887625,-0.3966962782716578
2980.0872802734375,-0.3081841563147165,0.017101972669864334,-0.4226500830994592,3.582916275949803,1.0757898320043535,-0.41831387708895523
2990.0898933410645,-0.30809393195583873,0.017230992346296985,-0.4322048736558369,3.7231017600030665,0.9649148184457436,-0.3912396476081321
3000.4420280456543,-0.30710046043844014,0.023997838020446572,-0.41318840568215276,3.5766680632383303,1.041981546380408,-0.41249530165077886
3010.0815296173096,-0.3112817946908883,0.01649677321933413,-0.43334556979238076,3.6867175828455747,1.0724041097107504,-0.3881533267474369
3020.075559616089,-0.3103331836788966,0.02068003019885908,-0.43926338921157587,3.66078283959011,1.082468413563328,-0.419049650029507
3030.081272125244,-0.30821620176599684,0.014760438119090747,-0.4214603496064927,3.574606349568136,1.0110586456952808,-0.39969068027253923
3040.0846004486084,-0.30591067379692033,0.02438348079711723,-0.43815878719552276,3.742187618102718,1.0360081210688743,-0.4049953623484431
3050.0872135162354,-0.30717763839066503,0.019226145269392862,-0.4060366738166213,3.499799460604986,0.9848814574977794,-0.38908619328209715
3060.076951980591,-0.3090294715500935,0.020120460344566524,-0.42865070796476246,3.734334240920652,1.1191085697856469,-0.415485382986912
3070.0650215148926,-0.3050911418626856,0.01639682892796554,-0.42498926660834363,3.4872032722210298,1.0497373615768493,-0.3991311041654757
3080.087661743164,-0.31009099510046945,0.0207732340031096,-0.4345949078247286,3.78532618854095,1.083986117399817,-0.4065709449595226
3090.0888442993164,-0.30518867883722633,0.01801159765478623,-0.40601008703440783,3.4263097334810206,0.927140325154969,-0.3921901532097312
3100.432872772217,-0.30799838648885564,0.016699725659852272,-0.45710684672828356,3.7856152041212576,1.1375673624946459,-0.4077720272318205
3110.4421615600586,-0.3049155234105132,0.020595386438082265,-0.39066923857534314,3.524505540615353,0.973548641490639,-0.3976378205260549
3120.4421520233154,-0.31242467617089026,0.01908928461814938,-0.46771353469411114,3.736777420516501,1.165853516552649,-0.3989771265536703
3130.0861835479736,-0.3070284722861299,0.020647493905056758,-0.39304894316657335,3.57118346705659,0.9674613813570011,-0.3981178395015351
3140.0907039642334,-0.3124859001779558,0.019344704059973444,-0.4510901741262562,3.655508621014428,1.1042790197888974,-0.38384566463646363
3150.0909328460693,-0.3047779655753053,0.023100802989895957,-0.39430469966833376,3.6716689857758005,0.9495883232224669,-0.4162700807340086
3160.085439682007,-0.31142867228124416,0.013894723218386553,-0.43446588502191047,3.579377338882454,1.127053465650184,-0.4106566368270374
3170.0713634490967,-0.30906237050461277,0.021503598296762353,-0.42510440513319736,3.7414886114555377,1.0504267358303327,-0.41000310970959103
3180.4239749908447,-0.30511840707055055,0.015619897122427923,-0.3977212012270935,3.436308054967816,0.9411795811745933,-0.4015457742520346
3190.0782585144043,-0.3091015597467395,0.021341782836531622,-0.4428902121014555,3.77720478007799,1.0404917955565918,-0.39694994693760705
3200.0839710235596,-0.30500377814653185,0.02186243231784975,-0.38708867055879925,3.472148825684003,0.9625989515198492,-0.40587133491994243
3210.078001022339,-0.31227268381387147,0.02052880380628556,-0.449973422976186,3.7810775744727403,1.163405600482781,-0.4079201835138421
3220.081329345703,-0.30714047191995086,0.0191565769394525,-0.41079828397446727,3.546458563079183,1.003878001016731,-0.40322564683031487
3230.0636768341064,-0.30697906288983395,0.02009693116736307,-0.43100696466481203,3.681991822950151,1.0764259764184712,-0.4009380455556424
3240.069627761841,-0.30615104594537734,0.01862692034153552,-0.4119850880442289,3.536396213217537,0.9254735458791241,-0.3976417097496054
3250.0834465026855,-0.30700374882966897,0.022379602132116632,-0.43810567303242026,3.6649664904942068,1.1344610483987372,-0.40589635225663945
3260.4117393493652,-0.30587442648354046,0.020041243989001662,-0.391900618649432,3.626361707376724,0.9638482332772582,-0.4074559434059338
3270.0717449188232,-0.30822759431472513,0.020330225179069027,-0.45346219406195015,3.609950184436952,1.1623721268630283,-0.4062648561880498
3280.071020126343,-0.3059936980900129,0.01982193742598138,-0.41440627351815057,3.629858919703313,0.9510793683698764,-0.3941662664451884
3290.0800704956055,-0.3071680028705825,0.016528418493271597,-0.420268480792236,3.5458828329382888,1.0428060711522713,-0.4130537522590657
3300.0659942626953,-0.3048267403153466,0.02155819124020199,-0.4180023890497399,3.694036954627506,0.9897369623910693,-0.4084383287603821
3310.063362121582,-0.3049609216542245,0.021706497588727145,-0.3977732868093695,3.51977108624188,0.9972947398249842,-0.40685116914383035
3320.068836212158,-0.3112874659541685,0.01859052921442306,-0.45350028281638405,3.724133270252731,1.1692222344355678,-0.40768135579981757
3330.082416534424,-0.30816439755841496,0.019869183363517732,-0.41438821551555594,3.623475637759483,0.952991218751571,-0.39428686051272344
3340.0769233703613,-0.307171898346904,0.017757503800410263,-0.4202672615018946,3.540250158634164,1.0429034705658504,-0.40840845614701793
3350.0804901123047,-0.30796067915345154,0.01854554677998203,-0.41919725919406775,3.761320869080024,1.004884865969572,-0.4141971683509866
3360.42857170105,-0.30404983039450745,0.02109754960199352,-0.3989261758493274,3.4502454220842966,0.9538850492369935,-0.4146878357954483
3370.4285621643066,-0.31010134656282934,0.0165976741846629,-0.4618363489071395,3.7995620285538476,1.204173385907588,-0.40896183263165325
3380.1891803741455,-0.30392218320130526,0.023729303391488786,-0.3942381545531629,3.5307101152381457,0.8991816287132682,-0.39191797008890567
3390.0773525238037,-0.30808253002795394,0.016896897413597973,-0.44403919941232084,3.7113256944402027,1.087791284950017,-0.40634767101331454
3400.42781829834,-0.3048675365196155,0.021822802255368874,-0.4001981239015444,3.6191702860473876,0.9317344954850866,-0.39338976295446293
3410.426378250122,-0.3093066693932462,0.019987745280483787,-0.4404210616213346,3.5979497631985002,1.0955783671277517,-0.40077575175843155
3420.429229736328,-0.3111334226882678,0.019040519257264524,-0.4215320219938683,3.7392480747880428,1.108557506470471,-0.40659274211916413
3430.2639961242676,-0.3062067862722921,0.019545946367628124,-0.4297422510686207,3.520093944945125,0.9959345182784356,-0.3940592659017671
3440.0782585144043,-0.3100936525281366,0.01724252870875789,-0.41915882966361534,3.721020400126448,1.0753053360448506,-0.4060829568274264
3450.068712234497,-0.301820576852249,0.02103097322296779,-0.40727631380117674,3.5304843683210145,0.9253107487338493,-0.4014818365423631
3460.4220390319824,-0.30911605992264557,0.0187368471817761,-0.4404695268492123,3.689248626379256,1.1283563211493626,-0.39309608280700303
3470.423936843872,-0.3101685638508807,0.020981479414263596,-0.4132068232190788,3.6570295043849614,1.071865514776715,-0.4050866277936893
3480.0825119018555,-0.3093038744046175,0.01888005126918032,-0.44043258547825354,3.617124313728139,1.0268595198946124,-0.3777394929969923
3490.079879760742,-0.30809398823077755,0.019861839483999947,-0.4037056189100127,3.582224953958159,1.0205281328235434,-0.3946878757268521
3500.0786781311035,-0.3081719227682912,0.01840804209332746,-0.42504116773387574,3.6173799926599592,1.0224652225153048,-0.39988207133951253
3510.4146003723145,-0.30806304326719003,0.0219467227970661,-0.4286270943751508,3.6730706819522694,1.1020320771575323,-0.4145145808907069
3520.0648307800293,-0.30919104940502695,0.02018541412952254,-0.428605875596825,3.6489412918831423,1.0632575375606719,-0.4006141176285593
3530.076026916504,-0.3104116465755582,0.01969263012208357,-0.42501024778137214,3.5855155465940496,1.0134814475105012,-0.4085027354278773
3540.0755405426025,-0.30700057867478137,0.018949563324181875,-0.4250779871758005,3.6734882451248008,1.0608003423786676,-0.41863791756591595
3550.062656402588,-0.30497921100934544,0.0193918155629337,-0.3966006734033505,3.544305046225438,0.920886488075998,-0.4017935121647078
3560.0807666778564,-0.3123101254065088,0.017837961331014947,-0.46298085610759665,3.7483000550187127,1.2142876712850066,-0.39078869463855953
3570.073127746582,-0.3049720484601861,0.021915734064081694,-0.3918667442626396,3.5454101640950975,0.91292218673672,-0.40588480026225116
3580.4319381713867,-0.3092723291750157,0.01739277966905828,-0.4499104419404746,3.6304433880916545,1.122591072468502,-0.397268350541528
3590.0347232818604,-0.30283099963177845,0.02211197102856568,-0.3812224583849002,3.543786009959033,0.8303267587001969,-0.4045091343713782
3600.074291229248,-0.3102752267446689,0.014353401486506838,-0.4487365686011028,3.6708329027567776,1.1322010312232498,-0.4025571443263678
3610.076427459717,-0.3069864692970616,0.024216231678903567,-0.401376990078545,3.6342700245310193,0.9982065220158947,-0.41223859726451806
3620.0432777404785,-0.30923509392382076,0.018704410932309474,-0.4416144779964092,3.616981025228327,1.1256393420913893,-0.39248796956519544
3630.0840377807617,-0.30696611027474574,0.020336996930041994,-0.4132290486935326,3.659544290714091,1.040715147662437,-0.4135058838759683
3640.083074569702,-0.3071251088616493,0.01913504552257763,-0.4226840387722743,3.62089136126005,0.9548742563645827,-0.3899015264806177
3650.442600250244,-0.31033713543015695,0.017328185418433718,-0.4095927903722419,3.5548880893377994,1.0499789436364912,-0.4177254725812814
3660.067558288574,-0.30701857414966616,0.018895454970493306,-0.43218943869066895,3.6812701375026204,1.0500191677122153,-0.4052052616175217
3670.073986053467,-0.30705297376922097,0.018889220957824714,-0.4309808030710254,3.6350926265758057,1.0541560885323817,-0.39141746078291906
3680.0684928894043,-0.3070801701966051,0.019115446211936064,-0.41437660099345774,3.593069869371997,1.015044240078538,-0.4037973595658535
3690.098524093628,-0.30703248656510007,0.018992385426248808,-0.42149454288460514,3.613929313455014,1.049566814121943,-0.39106011492132525
3700.4384994506836,-0.309159044596758,0.017606630689397208,-0.4392871216038362,3.6948163125081845,1.0750730080862614,-0.3970337934700838
3710.0818157196045,-0.3038707697919097,0.01851746558550403,-0.40726786630758066,3.5485089498547437,0.9949497787557128,-0.3984330948352668
3720.0767993927,-0.3091596917585546,0.017507039679589078,-0.4440305799675229,3.708518794282744,1.1058657667225644,-0.4110582304224819
3730.069875717163,-0.3071558662421074,0.018052243792551596,-0.4036764341014565,3.5182841679233183,0.9691907383648294,-0.3936020976778389
3740.436315536499,-0.3102623835530729,0.018199974886146445,-0.4428417562527342,3.7122095673878373,1.0820375194830643,-0.4152613180651748
3750.072240829468,-0.3050540723099217,0.019430285736397483,-0.38707091894198276,3.444055397659578,0.9400606540602217,-0.40110108968537095
3760.0834369659424,-0.3101288087329802,0.01785794206068639,-0.45827358252958,3.780114163151836,1.2041648602543549,-0.4176055475602414
3770.0729370117188,-0.305071911465532,0.02175962113098612,-0.404884757082551,3.5275835577961847,0.9184205765312458,-0.40598348462026695
3780.4391384124756,-0.31028566574582256,0.01688629896678431,-0.44043116297285523,3.638452037209119,1.1356368600971134,-0.4064769470533574
3790.0822162628174,-0.30506234472593025,0.018247758561987203,-0.39659198205168616,3.5302975073866176,0.8642021553150873,-0.405543283290397
3800.0433444976807,-0.309165147301236,0.019949028122566225,-0.4428362756989689,3.6838720499426065,1.121257800364884,-0.40184056113995825
3810.420513153076,-0.299558352448605,0.021300933483709365,-0.380050385843571,3.5326155815406683,0.9054422938181508,-0.42763257239222724
3820.439338684082,-0.3092678365590655,0.01707849664121421,-0.4724427773829713,3.686376928756116,1.1774694549034468,-0.3987349223433157
3830.078363418579,-0.30382147607187693,0.02138074385251747,-0.3883535404742652,3.606877775991691,0.8824325343001314,-0.41489339876785125
3840.087890625,-0.30933242455691906,0.016305894879581315,-0.44159604482755566,3.588822634039789,1.0804828148742918,-0.40087306363321695
3850.07643699646,-0.307975073032251,0.022402577939088227,-0.4073352711787615,3.7163758105775213,0.9738822956029837,-0.3994693853283468
3860.0807189941406,-0.3093182745361879,0.014077629275137943,-0.41904490730271754,3.5046523518400057,1.0712782732844441,-0.39552179841350077
3870.070457458496,-0.3089992925509512,0.022484870657975987,-0.4393441968973555,3.7905224506944197,1.1196365725256392,-0.4068894142175388
3880.0694942474365,-0.30509631290428735,0.015485656382225715,-0.41196429445432986,3.491230616356131,0.941960730474158,-0.38874129981391303
3890.4173374176025,-0.30801776382612733,0.02064766585625875,-0.43813375735328375,3.732936024411234,1.094608587359602,-0.40618171621869403
3900.082588195801,-0.3061697354778411,0.017497723050826603,-0.40130372948734,3.500808782896823,0.924820071910231,-0.41525299250061287
3910.076141357422,-0.30800749990256115,0.02306489645253459,-0.4345752303544498,3.720820302075883,1.1401203595072436,-0.4243260695805744
3920.06516456604,-0.30930837639972414,0.01790710759891408,-0.4226524685315886,3.5937467943584562,0.9797681070875244,-0.3947525137468736
3930.4380416870117,-0.30824298863688165,0.02173311876118095,-0.4463649550955226,3.623025119357494,1.1046965423184174,-0.4143767510599613
3940.0784969329834,-0.30499829446638105,0.018199530939406745,-0.3966022428488668,3.5499854916998617,0.8980517092275108,-0.4061436243378746
3950.063467025757,-0.30822337369431263,0.018161070145099444,-0.4321166220462037,3.565442522896534,1.1150101003806312,-0.4142060941815627
3960.0799083709717,-0.306879249906656,0.023953524632500552,-0.42156669986173184,3.736077182073437,1.0483135993715866,-0.40053545464322626
3970.0706005096436,-0.3062610822091101,0.014577166275236947,-0.4273284751283121,3.450109114803285,1.0266752913767982,-0.39881055586110814
3980.070114135742,-0.3078138703435765,0.02428192641722088,-0.4441407506658317,3.8814154809010053,1.1200693924593654,-0.40744788983690955
3990.0877475738525,-0.3010901938002833,0.015811969741438222,-0.3858250605766862,3.2829250660508458,0.8055385110263621,-0.3980814077314113
4000.427722930908,-0.3121955152408031,0.018809795134431977,-0.4736888702271797,3.8425005009415143,1.316966405700924,-0.42878052799588073
4010.079860687256,-0.3051177505295975,0.02221018955514336,-0.37641402747794456,3.438051249357826,0.8139261062027763,-0.39007010118627944
4020.432949066162,-0.3113753392711573,0.018105939463355373,-0.4819145186351725,3.708393560659141,1.2749656363662714,-0.4093038685834988
4030.4207801818848,-0.30792149929048135,0.017987199342416358,-0.37058151461325034,3.654669833671956,0.8945154671044551,-0.40240232884325083
4040.07887840271,-0.30737173378108784,0.018544558842166957,-0.45816177985804496,3.5271718128270515,1.0624358890634602,-0.3910067162571431
4050.41766166687,-0.3077910539822649,0.018594724823751674,-0.40024010813229977,3.751599273352172,1.0977161488833214,-0.4285239361594977
4060.4240894317627,-0.30618273811509716,0.018450911091176747,-0.4226347825688674,3.5182657378808497,0.960905235306616,-0.3846458036014992
4070.0716972351074,-0.31009228004490613,0.021672257414832342,-0.4511903247590672,3.8146720934887557,1.180481767966805,-0.43058275792311285
4080.0795555114746,-0.30512491307875683,0.01949724978722405,-0.3930086753214524,3.4714430941816317,0.8645875104642927,-0.4004213446991991
4090.0723934173584,-0.3102245605414057,0.016631955001569065,-0.46180451605007256,3.7403547621032183,1.1708368624750416,-0.40804636130586364
4100.070953369141,-0.3038318650508627,0.020402182067524317,-0.36460966812638945,3.5037411949261936,0.8657852475041155,-0.4046745764387782
4110.079050064087,-0.3083348543481421,0.012787344972017662,-0.4664608232918188,3.5734527164484313,1.167731861461039,-0.4069140970309883
4120.426177978516,-0.3100215674578761,0.023204411405059723,-0.4310579528857808,3.812729748342984,1.1289848590675813,-0.425030428599715
4130.436182022095,-0.3042207686476002,0.013638325217903901,-0.41310402141137165,3.400991438411083,0.8987956607925065,-0.4010131757253708
4140.087366104126,-0.3067989518217113,0.023792184382864432,-0.4310799907771052,3.8097245947024,1.097812741689444,-0.41535386532847224
4150.430917739868,-0.29988791412234245,0.017718211387562403,-0.3799534178711896,3.358944179724183,0.8050732360848564,-0.41181595684194977
4160.42947769165,-0.3132038683531377,0.01840142666162901,-0.4594599739164569,3.8237463085730354,1.2992712951757526,-0.41040912088773396
4170.428514480591,-0.30613517015985525,0.01885642204764116,-0.39657720362747134,3.514430247517775,0.8823284975701552,-0.39669827603198643
4180.079460144043,-0.3080938819336709,0.01785701977696662,-0.4534940769411849,3.6739728723924943,1.1841115171535037,-0.4028202828139685
4190.072774887085,-0.3081197527736069,0.017778031647542592,-0.38593599411305474,3.5779092507837036,0.9048370224607545,-0.40211516095676814
4200.059413909912,-0.3071916602295911,0.02255154082856643,-0.43094631903906233,3.5652767588114287,1.055370626767832,-0.40396244522530755
4210.090637207031,-0.30467035226032785,0.020204935280526835,-0.4156475892453291,3.725455900140139,1.087562130272701,-0.414535196276633
4220.068454742432,-0.3071409064875341,0.023892175570015373,-0.43216746020066893,3.6259261330973804,0.9939928421791591,-0.3856235087568679
4230.076789855957,-0.31142288534170076,0.016286848939171605,-0.4475359146436171,3.6491552460742027,1.0973580089198132,-0.4018097787484162
4240.0758266448975,-0.30494106285358724,0.019390952680538243,-0.3942412528011842,3.5635592351726832,0.9394328821064483,-0.41560994131124934
4250.43249130249,-0.3059716914625435,0.02062561545939243,-0.44049617303275007,3.693653966152117,1.0518741335099058,-0.4051899454550024
4260.078430175781,-0.30488360614103804,0.019143543038341516,-0.4013365721669205,3.5447560836074192,1.0426806249344545,-0.4034431182050521
4270.069122314453,-0.30816275933241777,0.018061394722883043,-0.4451897718006301,3.646550741860645,1.1077380745805718,-0.4014944890244442
4280.429363250732,-0.311381529514429,0.020134038236752878,-0.43688598251368127,3.656950359936263,1.073501702370533,-0.4010699102428716
4290.064334869385,-0.3081566347432414,0.018820946951477516,-0.3942106673719281,3.547054101998547,0.9592545256521935,-0.3980803009909476
4300.078392028809,-0.31132649575063515,0.016514221576758064,-0.4321530225524726,3.673271223949574,1.0649831147684419,-0.4013815889916018
4310.08243560791,-0.3059725918615648,0.0208675633061368,-0.4155787243521241,3.6107971285191693,1.0502467498176298,-0.41761492671671363
4320.075511932373,-0.309217933193862,0.01765684669314978,-0.43333261405090706,3.6346630799676887,1.0713928490599092,-0.396417786104912
4330.080509185791,-0.308166067048267,0.021803324873761448,-0.44877506065926503,3.6960303599011124,1.062215697733346,-0.4010004419572669
4340.08002281189,-0.3060566572410258,0.016332362859146077,-0.3953918783380468,3.5189418249959976,0.9312323479531027,-0.3931065655775535
4350.0707149505615,-0.30806517233570924,0.018327662722360045,-0.4250582690625102,3.6501932998486994,1.0788811457026775,-0.40088263975197513
4360.077142715454,-0.30600874850976545,0.02229215087716911,-0.41203996236236273,3.631172364270149,0.9586565262674485,-0.4119425129266157
4370.070934295654,-0.30808814188990985,0.019273647570539464,-0.44402783812744745,3.686678975111149,1.133751002484389,-0.4109929264823509
4380.075931549072,-0.3071367546476024,0.02053084220962555,-0.4120187435840369,3.6070429742010224,0.9198819866705881,-0.39804204966446816
4390.075206756592,-0.30495085469294425,0.01644192391228424,-0.41672532310447463,3.5384681157780453,1.0861439048961423,-0.41336201386845456
4400.074005126953,-0.30281239763810847,0.024179087092887856,-0.4037506232291522,3.588245925340236,0.9309938485095546,-0.41072600506830637
4410.072803497314,-0.3113154783681657,0.017404266009351344,-0.4499180578155301,3.6702070128870696,1.1578913067652639,-0.3847488492672746
4420.431137084961,-0.30700353310907014,0.025235061309017686,-0.41678126664644627,3.644153388823319,1.0300466354235296,-0.3948860979461227
4430.068254470825,-0.3114519388420664,0.01763415538725784,-0.44754396821264125,3.6569517136611807,1.0289531101912703,-0.38293345100435544
4440.068244934082,-0.30483321505969796,0.024054181739761035,-0.4085013473127194,3.6416642607399123,1.0198242208775277,-0.4125261246853322
4450.071334838867,-0.306012447023801,0.01859876724019122,-0.4120302705673413,3.621836933425345,0.9585871986691907,-0.4122177911690771
4460.073232650757,-0.30711451979399207,0.015030689133682969,-0.433311654762577,3.5796275310077377,1.1271893539955398,-0.419198528506577
4470.076322555542,-0.30705324889114416,0.021332284877410703,-0.4369383494706515,3.696975907055323,1.0353609561459016,-0.4094537818941662
4480.079412460327,-0.307162253447665,0.01653602498917061,-0.4178861312788806,3.519280546979223,1.0503440116702474,-0.3994538909618546
4490.0803565979,-0.30378631361426234,0.02076897586607119,-0.42985495726556255,3.698544702283502,1.0032992695457654,-0.40430957718550303
4500.080108642578,-0.3050632576304935,0.016674983445078395,-0.4143522652087977,3.5253255508865675,0.9570865586447103,-0.3980960923640614
4510.077238082886,-0.3069266490370814,0.022353684396398236,-0.4393211491835176,3.724269324296518,1.15289049685352,-0.42008438045622715
4520.071506500244,-0.3082948710041008,0.01740828028832148,-0.4119678991768007,3.535597834407533,0.9500253762821478,-0.4027027838680693
4530.093669891357,-0.3113250638660804,0.01853069644890092,-0.45585455113526147,3.698108143192729,1.184986564314898,-0.4077057040900196
4540.093898773193,-0.30072366261811767,0.01703581522649436,-0.38952198640842506,3.5475730569789286,0.8368706555722295,-0.42298979302049955
4550.434350967407,-0.30712802265292666,0.014851319018921644,-0.4510947230171452,3.608846001356554,1.128589458841794,-0.3927899127495075
4560.08505821228,-0.3049315273778404,0.02177598150625926,-0.40374322620108105,3.606413820384862,0.9324207402266937,-0.40679171154456706
4570.203542709351,-0.3135474018436333,0.017328888855169134,-0.45699807665067455,3.651548856828096,1.1836228662276838,-0.3986230446385289
4580.081224441528,-0.30486753651961557,0.0243300289843817,-0.40022273480812764,3.660419616123794,0.908746173592377,-0.41112520697885047
4590.083599090576,-0.30941799060141567,0.012699527929967739,-0.4356321956347802,3.519381741824788,1.0539959488147743,-0.4002371505716255
4600.077867507935,-0.30367841579820526,0.02442797238903623,-0.42870119596405276,3.7471433424093,1.040619170754256,-0.40482257952791073
4610.081434249878,-0.3072144515798187,0.01424946167448105,-0.4119443668732118,3.483934539272491,0.977847605997177,-0.3804469209472914
4620.437860488892,-0.31027444202191073,0.019155554611397025,-0.4534847290485675,3.68162770846397,1.1746147116688233,-0.4117560771806453
4630.439519882202,-0.3070938481331272,0.01937067494424519,-0.4072895040215622,3.6251588493174673,0.9115063374131342,-0.40261870285668083
4640.094518661499,-0.308182146048846,0.018214881492166383,-0.4309442900148788,3.5851782533689933,1.0955545909660944,-0.4006483265385992
4650.434970855713,-0.3059014103167112,0.02221738962092858,-0.4156189609333902,3.6778486337270757,0.9924409950867255,-0.3993588863595614
4660.085439682007,-0.30820988334092,0.019410986558763024,-0.43331445913036226,3.586364338370092,1.09973925481909,-0.409592918554047
4670.076131820679,-0.31021126402391347,0.02082460989587925,-0.42506070139042207,3.6784011442029296,1.0919962484240044,-0.4191289320391672
4680.080413818359,-0.30718692062918707,0.016499577587119348,-0.4261956074610371,3.5535041948003143,1.024313741706113,-0.39950387873946636
4690.080165863037,-0.3092224258098122,0.017782108454222536,-0.42266099731120743,3.6132265019966914,1.0592115695472026,-0.4093937459135872
4700.090169906616,-0.30700112891862774,0.021706506967883617,-0.41324703166287546,3.6870115506204995,0.9608041936539401,-0.408090052543097
4710.093259811401,-0.3082245710999556,0.018311196049980206,-0.4250045139903821,3.5514189800903866,1.0687950321849162,-0.3999472220867545
4720.43776512146,-0.31230226567338504,0.021964465034726165,-0.43811422369673747,3.7474456357487864,1.1094708518541267,-0.4021878087764169
4730.076551437378,-0.3061321782089406,0.017152767054932697,-0.42144720628188953,3.5170319067205362,1.010025634780581,-0.3898593202764925
4740.088939666748,-0.3059753211960982,0.020820658144618937,-0.4274535180424005,3.665446400046195,1.0128682101228743,-0.404280833197301
4750.43249130249,-0.30285689235641294,0.017865045208521405,-0.40963349278494604,3.531788421225836,0.9813045817425002,-0.40710233670138696
4760.432720184326,-0.31126454642213575,0.02134502489828555,-0.438108461768278,3.7239063478146552,1.0917383904014977,-0.3972671625150415
4770.073413848877,-0.3071283853136436,0.02130659224144765,-0.4333415305023267,3.6173602088925736,1.058728311636354,-0.409062236501689
4780.431747436523,-0.3048644445243652,0.017921660923373557,-0.40610113363266975,3.597256137060749,1.0159858604925724,-0.4081869767460815
4790.081739425659,-0.30713571668761946,0.022673251015721686,-0.43454248146643404,3.6386508065458503,0.975007028415212,-0.3766624625745822
4800.430059432983,-0.30497339280594715,0.02021355785171035,-0.4167429058964746,3.561072183009242,1.0405674634646247,-0.4126014111743352
4810.071229934692,-0.3080677234662697,0.018373654979314594,-0.4238777146373446,3.6566432019409527,1.059715796125538,-0.4006703519243816
4820.431232452393,-0.310411040056773,0.021705637832717176,-0.4546498641404927,3.6377573543530723,1.1033673626534066,-0.4012869501764111
4830.074310302734,-0.30811441603357415,0.01985264791065711,-0.40488652349035326,3.575822823036205,1.0169561029657748,-0.3946049796155646
4840.078592300415,-0.30920742541222757,0.01901237553507672,-0.4286050564838264,3.6481718102542295,1.0290204243972718,-0.3913135928777596
4850.0871658325195,-0.30501149093953756,0.01921018819784804,-0.40368847068559593,3.5123116086205655,0.9789496318715857,-0.40238180099611853
4860.080718994141,-0.3090680511470495,0.01999192213149945,-0.4381260070436521,3.7357140273876017,1.1353230491534785,-0.41583275567879024
4870.435476303101,-0.30622168975192654,0.020983192673512525,-0.419084496722187,3.519466423102191,0.9380338589895738,-0.4020096485728405
4880.082368850708,-0.3112454223220888,0.017549602291660252,-0.4392813628017622,3.7145231708106365,1.1449741261302007,-0.4117005494479439
4890.071868896484,-0.3028917921976463,0.0194225010365255,-0.39304076454212955,3.504124793046753,0.8850710191975882,-0.4008060214227531
4900.085687637329,-0.31234594753146194,0.01923166333978406,-0.45706452172150963,3.7549728590173004,1.153040056882627,-0.39881769339918355
4910.074710845947,-0.3037996632803079,0.020112706908549445,-0.3764525664318891,3.505298728913835,0.9656341747360835,-0.4061419360897096
4920.0873374938965,-0.31354856173265033,0.017167285989151775,-0.4771744555261288,3.72715313978982,1.165859825598569,-0.38582426334838593
4930.091857910156,-0.3059785570050812,0.021078788162663464,-0.40372793504964577,3.5959709581451356,0.9960435916154373,-0.41663289151744026
4940.083742141724,-0.3082602556639471,0.014877477486322824,-0.4155243440028979,3.5474575088975757,0.972844892116669,-0.398894505564306
4950.0744342803955,-0.3048895837900964,0.020047271660227843,-0.43218812560876285,3.649064124442689,1.0600009318614516,-0.40032435484211926
4960.069179534912,-0.30387563757411884,0.023283277605449616,-0.4215207888908,3.6134714605526637,1.0074191390594653,-0.40780920620807665
4970.085859298706,-0.30817961367659846,0.015783457105762493,-0.4297685627289109,3.6093434311728325,1.0875967768767094,-0.42337726785906776
4980.0848960876465,-0.3081444512189839,0.020753206377655802,-0.43573704522498374,3.6800181295370633,1.03439555957021,-0.4049367394941058
4990.079879760742,-0.3028800870103689,0.017931655977787522,-0.4072614228270842,3.5249046987565,0.9545990875456137,-0.40666778787648433
